svm_type nu_svc
kernel_type rbf
gamma 0.000174034
nr_class 7
total_sv 1151
rho 0.181246 -2.2575 -0.907998 -0.799279 -12.3163 1.46913 -1.94742 -0.795544 -0.580674 -7.81603 1.03552 0.878982 1.48818 -9.16048 2.87855 0.922584 -8.44718 2.44484 -8.53311 1.26013 8.20054
label 5 6 4 0 1 3 2
nr_sv 183 145 163 165 171 159 165
SV
104.1452007997215 168.8009459531915 93.93997180762483 156.4967582911182 179.752911730019 109.5943118505513 53:0.126068 135:0.0892688 247:0.106838 280:0.356125 370:0.145299 452:0.0549451 459:0.358974 605:0.0650442 657:0.0840456 729:0.0726496 838:0.213675 899:0.185897 920:0.165023 1103:0.0811966 1114:0.106838 1122:0.0576923 1128:0.162393 1209:0.146724 1249:0.15812 1272:0.346154 1325:0.0623932 1441:0.0566802 1491:0.0790598 1506:0.211538 1563:0.0543346 1705:0.324786 1772:0.0940171 1831:0.118653 1846:0.307304 1869:0.0876068 1939:0.124644 2045:0.833333 2106:0.123932 2132:0.024948 2169:0.159188 2317:0.383903 2329:0.106838 2405:0.105769 2434:0.649573 2496:0.192308 2594:0.573655 2645:0.025641 2704:0.165242 2723:0.297009 2730:0.252137 2870:0.31339 2938:0.0598291 2975:0.196581 3053:0.141026 3066:0.0811966 3128:0.0923077 3243:0.168091 3290:0.803419 3394:0.247863 3463:0.178419 3505:0.0744811 3636:0.24224 3697:0.293803 3764:0.233333 3878:0.0612536 3928:0.373219 4021:0.525641 4027:0.277778 4111:0.0769231 4203:0.166667 4244:0.0748338 4266:0.175214 4381:0.0619658 4417:0.354701 4418:0.188034 4443:0.282051 4450:0.173504 4454:0.2 4539:0.130342 4584:0.145299 4719:0.653846 4732:0.138462 4864:0.141026 4956:0.0833333 4961:0.0940171 5030:0.0790598 5159:0.371795 5191:0.0876068 5228:0.303419 5324:0.0544872 5349:0.961538 5464:0.102564 5470:0.0384615 5519:0.0541311 5744:0.467147 
29.14288037589226 40.54070618316888 35.88558039472692 74.38379965002551 28.42873287233423 54.85604807576625 74:0.689189 119:0.405405 124:0.151351 370:0.153153 452:0.11583 502:0.459459 654:0.594595 779:0.0630631 960:0.373874 961:0.174305 1345:1 1374:0.660661 1398:0.168168 1645:1 1713:0.175676 2144:0.0900901 2269:0.463964 2355:1 2374:1 2480:1 2485:0.268769 2611:0.490347 2621:0.342342 2628:0.207207 2871:0.114114 2912:0.171171 2991:0.783784 3086:0.144144 3102:1 3239:0.45045 3243:0.177177 3349:0.144144 3425:0.594595 3548:0.459459 3636:0.170223 3733:0.396396 3879:0.213213 3934:0.225225 4088:0.702703 4161:0.387387 4383:0.150901 4428:0.153153 4485:0.166667 4551:0.684685 4586:0.418919 4680:0.184685 4881:0.118118 5134:0.443694 5172:0.594595 5185:0.207207 5323:0.234234 5576:0.209009 
34.26077221556712 60.23913447571383 41.02925003641271 0 125.785974520203 47.56954957816361 50:0.0972973 119:0.486486 255:0.279279 719:1 870:0.108108 966:1 1047:0.546547 1089:0.271772 1328:0.147147 1373:0.198198 1631:1 2060:0.216216 2096:0.518919 2196:0.101101 2293:0.376376 2306:1 2412:1 2483:0.432432 2485:0.179179 2611:0.163449 2687:0.204204 2688:0.147748 2848:0.504505 2924:0.0740741 2958:0.375375 3188:0.156156 3213:0.798799 3425:0.396396 4161:0.258258 4256:0.264264 4262:0.0750751 4341:0.274775 4391:0.24024 4560:0.426426 4781:0.241909 5185:0.138138 5256:0.456456 5263:0.144144 5365:0.309309 5487:0.138996 5576:0.278679 5632:0.492492 
0 0 0 6.055330944124065 0 32.20776751590717 3:0.986842 108:1 351:0.298246 870:0.236842 879:0.289474 1006:1 1114:0.328947 1205:0.473684 1392:0.35 1449:0.894737 1828:0.517544 1888:0.640351 2006:1 2329:0.986842 2388:0.513158 2434:0.5 2441:1 2751:0.328947 2987:0.697368 3094:0.68797 3152:1 3190:1 4076:0.5 4138:0.546053 4161:0.565789 4309:0.802632 4657:0.18797 5203:1 5576:0.305263 5689:0.157895 5744:0.958882 
104.1452007997215 168.8009459531915 143.5259305266592 156.4967582911182 179.752911730019 109.5943118505513 119:0.144 124:0.2688 616:0.736 632:1 647:0.192 824:0.3696 870:0.144 871:0.9216 879:0.176 1183:0.4 1582:1 1615:0.361333 2078:0.386667 2134:0.138667 2293:0.250667 2471:0.26 3053:0.792 3243:0.157333 3400:0.084 4133:0.688 4147:0.223333 4161:0.344 4485:0.296 4655:0.3184 4742:0.028 5172:0.528 5181:1 5556:1 5576:0.1856 5692:0.2976 
0 15.76994105017049 0 35.21053109334404 18.08675432620364 29.63625363532839 452:0.146104 605:0.432396 703:0.236742 821:0.429924 841:0.204545 855:1 894:1 999:0.221591 1011:1 1012:0.261364 1014:0.511364 1068:0.425325 1079:0.644886 1127:0.525568 1164:0.0795455 1185:0.125 1209:0.390152 1210:1 1341:0.859848 1388:1 1441:0.753589 1460:1 1702:0.992424 1772:0.25 1831:0.157754 1899:0.208333 1917:0.272727 2178:0.252841 2207:0.179545 2405:0.28125 2704:0.878788 3457:0.204545 3505:0.396104 3690:0.515909 3715:1 4083:1 4327:0.318182 5098:0.130682 5185:0.261364 5279:0.477273 5336:0.315341 5403:1 5441:0.973485 5671:0.255682 5721:0.988636 
104.1452007997215 113.387458610686 143.5259305266592 156.4967582911182 179.752911730019 109.5943118505513 145:0.269697 314:1 388:0.6875 605:0.115306 750:0.585082 870:0.272727 874:1 1713:0.295455 1733:0.106061 1965:0.69697 2006:0.575758 2485:0.45202 2649:0.234848 3053:1 3243:0.29798 3425:1 3590:1 3837:0.84596 4324:0.818182 4657:0.21645 5464:0.363636 5468:1 
69.1113237005044 62.57823023524727 30.61929617781399 0 130.5013236515647 0 993:1 1114:0.520833 1504:0.520833 1531:1 1857:0.575 2097:0.295455 2539:1 2965:1 3040:1 3140:0.319444 3415:0.90625 3734:0.302083 4111:0.75 4186:0.94391 4349:0.239583 4456:1 4887:1 4956:0.40625 5098:0.239583 5689:1 
104.1452007997215 168.8009459531915 143.5259305266592 156.4967582911182 179.752911730019 109.5943118505513 24:0.375 53:0.0838068 134:0.566761 201:0.081095 247:0.142045 296:0.130682 379:0.118506 475:0.0823864 476:0.103084 758:0.0666035 802:0.0898438 949:0.100379 999:0.166193 1023:0.0696023 1081:0.18892 1114:0.0710227 1117:0.159091 1122:0.0383523 1185:0.125 1270:1 1346:0.166667 1398:0.477273 1402:0.0620942 1441:0.0753589 1449:0.0965909 1512:0.153409 1559:0.16572 1586:0.129735 1664:0.133523 1713:0.110795 1772:0.0625 1808:0.160511 1815:0.125406 1817:1 1831:0.078877 1857:0.0261364 1917:0.0681818 1918:0.0724432 1960:0.0842803 1974:0.130682 2006:0.107955 2106:0.0823864 2115:0.0767045 2144:0.113636 2151:0.132748 2196:0.047822 2207:0.224432 2251:0.0584416 2293:0.267045 2329:0.0710227 2406:0.28125 2412:0.15767 2471:0.184659 2485:0.254261 2522:0.210227 2532:0.0879972 2813:0.0653409 2937:0.0438312 2979:0.0426136 3032:0.285227 3124:0.0755682 3294:0.65625 3297:0.289773 3359:1 3396:0.110795 3483:0.178977 3675:0.0823864 3718:0.0342093 3732:0.551136 3811:0.0345922 3840:0.0685877 3930:0.12642 3947:0.142045 3983:0.193182 4076:0.107955 4245:0.146307 4266:0.116477 4270:0.346591 4290:0.167614 4484:0.167614 4516:0.114347 4585:0.255682 4846:0.0880682 4956:0.0553977 5029:0.0397727 5030:0.0525568 5137:0.0549242 5171:0.0369318 5185:0.0653409 5194:0.0957792 5336:0.15767 5389:0.12571 5434:0.269886 5451:0.0774148 5547:0.131392 5604:0.105114 5662:0.275568 5721:0.741477 
0 41.09133072954717 0 0 0 0 32:1 119:0.0769231 249:0.264957 370:0.145299 452:0.10989 463:0.205128 791:0.568376 1114:0.213675 1172:0.837607 1381:0.113248 1392:0.22735 1505:0.146724 1679:1 1713:0.166667 1808:0.482906 1850:0.608974 1861:1 2061:0.421652 2068:0.478632 2096:0.738462 2274:0.418803 2434:0.324786 2538:0.166667 2924:0.210826 3134:0.440171 3245:1 3264:0.350427 3406:0.205128 3904:0.440171 3917:0.205128 4068:0.247863 4076:0.324786 4161:0.367521 4168:0.438746 4234:0.307692 4358:1 4381:0.74359 4391:0.34188 4395:0.632479 4401:0.290598 4482:0.615385 4680:0.175214 4781:0.137702 4983:1 5082:0.794872 5098:0.0982906 5243:0.166667 5377:0.794872 5576:0.396581 
73.51222513496113 96.2889179095327 143.5259305266592 156.4967582911182 149.4831847267772 71.28107763846143 6:0.283448 61:0.0772414 65:0.136552 69:0.825517 124:0.0231724 151:0.306207 168:0.0889655 193:0.0386207 227:0.118161 264:0.114483 353:0.52 370:0.351724 437:0.0252874 449:0.223448 450:0.291724 466:0.0284138 485:0.103172 498:0.102069 533:0.813103 577:0.0765517 605:0.136458 634:0.0222414 708:0.378621 739:0.0183908 740:0.167488 749:0.227586 798:0.0101916 860:0.0281034 870:0.0248276 885:0.306207 923:0.208276 960:0.0572414 1028:0.428103 1047:0.017931 1071:0.711724 1078:0.0295335 1092:0.0634483 1114:0.0344828 1205:0.0496552 1216:0.156897 1249:0.153103 1352:0.0367639 1364:0.0844625 1402:0.0301478 1441:0.054882 1447:0.336552 1461:0.56069 1474:0.0719212 1515:0.0589655 1559:0.321839 1624:0.215172 1691:0.0141379 1705:0.104828 1708:0.12069 1733:0.0289655 1756:0.044046 1772:0.0606897 1831:0.0382961 1846:0.0708464 1853:0.028046 1855:0.543448 1917:0.0331034 1922:0.128276 2006:0.0524138 2061:0.204138 2064:0.135517 2068:0.0193103 2098:0.0845977 2104:0.508966 2115:0.0372414 2129:0.08 2207:0.0217931 2262:0.0381609 2264:0.0358621 2278:0.0731034 2384:0.118621 2405:0.0341379 2434:0.0524138 2436:0.681379 2456:0.057931 2468:0.0317241 2480:0.0306207 2485:0.123448 2489:0.0541379 2545:1 2549:0.0651034 2580:0.0510345 2594:0.0529006 2628:0.158621 2645:0.107586 2704:0.0533333 2941:0.211034 2943:0.0151724 2991:0.096 3026:0.0835468 3078:0.0556322 3079:0.231034 3096:0.119172 3128:0.0297931 3154:0.043908 3174:0.0813793 3186:0.0572414 3212:0.0731034 3240:0.293793 3253:0.0162452 3274:0.0542529 3313:0.017931 3315:0.0533333 3331:0.117517 3363:0.0529655 3369:0.0395402 3377:0.0431418 3445:0.183448 3446:0.0229885 3493:0.215862 3498:0.0486815 3509:0.025931 3523:0.114483 3581:0.637931 3594:0.057931 3669:0.0717241 3684:0.0544828 3722:0.0225558 3760:0.0698851 3848:0.030936 3874:0.12869 3893:0.253793 3942:0.0662069 3971:0.346483 3983:0.0937931 3993:1 4007:0.224033 4024:0.0695172 4092:0.342069 4152:0.456092 4223:0.153103 4237:0.0131363 4302:0.156414 4303:1 4306:0.127586 4311:0.0878161 4327:0.0193103 4332:0.231724 4353:0.138621 4381:0.04 4401:0.14069 4425:0.322759 4450:0.056 4482:0.0993103 4511:0.17931 4522:0.0331034 4539:0.042069 4570:0.104828 4578:0.0314734 4619:0.543448 4641:0.0570115 4655:0.0548966 4725:0.0588506 4732:0.268138 4821:0.33931 4863:0.230172 4864:0.0910345 4873:0.398621 4890:0.0524138 4901:0.0603448 4912:0.0208096 4914:0.0634483 4927:0.353103 4931:0.0613793 5038:0.0841379 5039:0.241379 5098:0.0158621 5124:0.214713 5185:0.0317241 5202:0.0417241 5210:0.217931 5217:0.184138 5328:0.122207 5343:0.178654 5379:0.0434483 5407:0.130575 5446:0.0841379 5451:0.0375862 5466:0.216552 5470:0.0372414 5494:0.208401 5527:0.125517 5553:0.0317241 5567:0.0511877 5575:0.018493 5577:0.0248276 5614:0.0240495 5626:0.0593103 5668:0.0689655 5722:0.0537931 5725:0.0194943 
104.1452007997215 168.8009459531915 143.5259305266592 156.4967582911182 179.752911730019 109.5943118505513 86:0.0221607 379:0.057776 416:0.124654 452:0.320538 456:0.282548 458:0.0904894 475:0.0803324 522:0.0858726 698:0.240997 703:0.11542 758:0.0649431 779:0.135734 791:0.0921053 872:0.00969529 888:0.142659 914:0.88608 936:0.0240074 960:0.344875 982:0.0720222 1047:0.108033 1117:0.155125 1181:0.0288089 1209:0.0951062 1328:0.135734 1340:0.717452 1407:0.21422 1446:0.152355 1503:0.105263 1513:0.136657 1679:0.48615 1713:0.0540166 1771:0.175439 1808:0.15651 1831:0.0769105 1953:0.031856 1965:0.127424 1974:0.127424 2144:0.0277008 2343:0.089847 2377:0.282548 2405:0.0685596 2439:0.149584 2535:0.099723 2629:0.218837 2802:0.204986 2813:0.0637119 2848:0.232687 2937:0.0427384 2979:0.0415512 3009:0.363804 3049:0.108033 3050:0.0941828 3104:0.107725 3257:0.739612 3369:0.158818 3463:0.346953 3601:0.11265 3636:0.41872 3643:0.0526316 3653:0.65651 3686:0.102493 3741:1 3905:0.128809 3913:0.258541 3942:0.0886427 3983:0.0941828 4021:0.34072 4065:0.119114 4138:0.114958 4191:0.0304709 4216:0.0470914 4428:0.0470914 4719:0.141274 4763:0.105263 4846:0.171745 4897:0.10988 4931:0.0616343 4986:0.179396 5319:0.249307 5324:0.0353186 5506:0.099723 5610:0.0438839 5681:0.0775623 5692:0.103047 5696:0.210526 
104.1452007997215 168.8009459531915 143.5259305266592 156.4967582911182 179.752911730019 109.5943118505513 1:1 124:0.122628 234:0.277372 247:0.182482 452:0.0938478 475:0.211679 920:0.140932 925:0.211679 1398:0.136253 1574:0.244526 1622:0.246959 1801:0.472019 2429:0.883212 2485:0.435523 2549:0.0861314 2594:0.279948 2600:0.489051 2602:0.554745 3337:1 3433:0.423358 3480:0.215328 3543:1 3651:0.609489 3734:0.105839 3785:0.583942 3897:1 3948:0.459854 3990:0.238443 4149:0.202555 4383:0.122263 4668:1 4802:0.350365 4819:0.250608 4826:0.510949 5027:0.452555 5259:0.296837 5450:0.39781 5456:0.143066 5506:0.262774 5691:0.744526 
0 0 0 0 0 109.5943118505513 86:0.0686695 119:0.193133 654:0.566524 778:1 779:0.240343 802:0.950107 870:0.309013 1114:0.214592 1130:0.526466 1183:0.214592 1205:0.309013 1441:0.227694 1718:0.194564 1970:1 2144:0.0858369 2335:0.595708 2338:0.400572 2485:0.51216 2564:0.437768 3059:0.240343 3698:0.809013 3840:0.207235 3913:0.480687 3964:0.145923 3981:0.781116 4161:0.738197 4411:0.32618 4657:0.122624 4664:0.7897 5098:0.197425 5172:0.566524 5185:0.493562 5323:0.446352 5326:0.39485 5576:0.398283 
43.82158327650173 16.4960912491979 43.21825296813287 54.00646133554461 63.15444459900292 60.69291880055177 148:1 245:0.336449 348:0.434579 370:0.476636 475:0.271028 502:0.476636 504:0.330218 619:1 625:0.268692 725:1 779:0.130841 802:0.295561 982:0.485981 993:0.448598 1475:0.283489 1486:1 1504:0.46729 1511:0.476636 1531:0.11215 2172:1 2319:0.869159 2405:0.231308 2564:0.476636 2722:0.549065 2774:0.224299 2863:1 2871:0.11838 2912:0.17757 3166:0.457944 3243:0.183801 3264:0.766355 3267:1 3284:0.616822 3636:0.353173 3926:0.216288 4088:0.312417 4111:0.672897 4221:0.191589 4349:0.107477 4381:0.135514 4431:0.878505 4456:0.224299 4485:0.172897 4586:0.869159 4680:0.191589 4728:1 4961:0.205607 5063:1 5094:0.383178 5138:0.140187 5323:0.242991 
15.03603643532776 78.33027753841539 65.25299842057214 36.56363198148912 54.34724789964786 12.24663233613723 20:0.245064 32:0.978397 219:0.463415 380:0.245645 394:1 397:0.371661 452:0.0447984 511:0.926829 697:0.236934 722:0.0766551 773:1 791:0.115854 841:0.0627178 960:0.289199 999:0.0679443 1090:1 1107:0.499898 1151:0.275261 1183:0.087108 1189:0.198606 1249:0.12892 1271:0.0592334 1304:0.198606 1312:0.157956 1328:0.0853659 1362:0.240999 1398:0.0650407 1409:0.287456 1441:0.0462131 1491:0.0644599 1618:0.118467 1636:0.115854 1661:0.110337 1767:1 1802:0.390244 1828:0.068525 1917:0.0836237 2129:0.0673635 2134:0.0603949 2196:0.0586527 2343:0.113013 2485:0.311847 2532:0.107927 2538:0.0679443 2555:1 2596:0.033101 2620:0.0638792 2622:1 2629:0.275261 2698:0.508711 2861:1 2934:0.114983 3009:0.228804 3094:0.242907 3203:0.262021 3307:0.508711 3429:0.0522648 3463:0.290941 3486:1 3494:0.146341 3498:0.040992 3592:0.0469554 3622:0.0836237 3661:0.836237 3733:0.15331 3793:0.0443006 3860:0.0818815 3864:0.253194 3913:0.0650407 3942:0.0557491 3970:0.0958188 4046:0.0930046 4168:0.357724 4191:0.881533 4203:0.135889 4435:0.404181 4567:0.250871 4734:0.853659 4986:0.112826 5030:0.0644599 5256:0.264808 5323:0.181185 5462:0.264808 5547:0.241725 5609:0.1777 
16.46848287826454 0 0 0 0 0 351:1 371:0.348039 697:1 802:0.465074 1114:0.367647 1205:0.529412 1271:1 1312:0.666667 1336:0.264706 1340:0.544118 1354:0.647059 1624:0.573529 1629:0.269608 1691:0.150735 2326:0.319853 2371:0.676471 2480:0.326471 2538:0.860294 2620:0.808824 3094:0.256303 3228:0.426471 3463:0.613971 3733:0.647059 4084:1 4191:0.485294 4510:0.22549 5100:0.558824 5323:0.382353 5462:0.558824 5553:0.169118 5576:0.341176 5609:1 5746:0.708478 
0 0 45.68136341278149 156.4967582911182 11.52388579973077 0 77:0.233083 90:0.469925 137:0.398496 168:0.161654 206:0.24718 388:0.0568609 393:0.691729 452:0.0483351 465:0.289474 554:0.270677 646:0.704887 659:0.0623618 739:0.100251 831:1 873:0.123839 1006:0.142857 1047:0.0488722 1114:0.093985 1127:0.695489 1139:0.0504038 1183:0.093985 1205:0.135338 1325:0.0548872 1381:0.24906 1441:0.0498615 1493:0.817669 1691:0.0385338 1971:0.514286 2021:0.157895 2064:0.12312 2068:0.0526316 2213:0.154135 2471:0.366541 2485:0.336466 2549:0.0443609 2628:0.0864662 2646:0.0984962 2683:0.0836466 2764:0.665414 2768:0.796992 2799:0.0507519 2813:0.259398 2843:1 2912:0.0714286 2937:0.0580021 2968:0.81203 3094:0.131042 3152:0.571429 3154:0.119674 3213:1 3392:0.154135 3633:0.103383 3636:0.0710328 3745:0.443609 3850:0.230576 3969:1 3983:0.12782 4161:0.323308 4221:0.0770677 4499:0.221805 4560:0.266917 4766:1 4814:0.0717178 4973:0.218045 5077:0.263158 5098:0.0432331 5206:0.108681 5211:0.0651629 5291:0.12406 5323:0.293233 5336:0.730263 5604:0.0695489 5742:0.132832 
104.1452007997215 168.8009459531915 143.5259305266592 156.4967582911182 179.752911730019 83.51463776758838 142:0.426316 227:0.225439 234:0.8 452:0.135338 477:0.134211 521:0.147368 554:0.189474 631:1 726:0.181579 1103:0.05 1114:0.131579 1142:0.142105 1205:0.189474 1374:0.192982 1386:0.252632 1390:0.244737 1528:0.789474 1557:0.344737 1569:0.378947 1718:0.119298 1752:0.0963563 1801:0.510526 2097:0.0746411 2171:1 2254:0.593684 2286:0.121053 2513:0.181579 2568:0.736842 2594:0.0504644 2858:0.436842 2883:0.1 2936:0.821053 3317:0.155263 3673:0.0605263 3816:0.347368 3894:0.0666667 3904:0.271053 3939:0.198684 4149:0.438158 4221:0.107895 4349:0.302632 4646:0.242105 4807:0.0973684 4810:0.328947 5211:0.182456 5323:0.136842 5506:0.189474 5573:0.131579 5671:0.118421 
104.1452007997215 168.8009459531915 143.5259305266592 156.4967582911182 179.752911730019 109.5943118505513 62:0.754887 88:0.0616541 401:0.518797 479:0.305764 870:0.270677 938:0.12782 949:0.796992 974:0.191729 1114:0.18797 1205:0.270677 1270:0.610758 1277:0.223058 1554:0.240602 1882:0.0909774 2451:0.349282 2468:0.172932 2624:0.174812 2668:0.804511 2772:0.214286 2937:0.464017 2965:0.180451 3124:1 3140:0.115288 3294:0.496241 3942:0.240602 3967:1 3986:0.308271 4450:0.915789 5098:0.172932 5163:1 5266:0.214286 5506:0.270677 5687:0.759398 5722:0.0977444 
59.46493316030973 135.6098533519496 69.38359752846392 75.502373587237 141.4116462537102 80.51012001056766 461:1 1253:0.534483 1417:1 1658:1 2056:1 2106:1 2758:0.617816 2876:1 3525:0.758621 3675:1 3713:1 3734:1 4068:1 4112:1 4205:1 4533:1 4961:0.758621 5111:1 5263:0.551724 5638:1 
104.1452007997215 168.8009459531915 143.5259305266592 156.4967582911182 179.752911730019 109.5943118505513 24:0.385965 201:0.66773 258:0.251462 802:0.184942 824:0.270175 872:0.0204678 899:0.254386 1047:0.0760234 1114:0.146199 1122:0.157895 1205:0.210526 1328:0.143275 1382:0.403509 1416:0.19883 1513:0.14425 1578:0.362573 1722:0.239766 1917:0.140351 1971:1 2006:0.222222 2129:0.11306 2207:0.0923977 2274:0.28655 2946:0.170654 3032:0.293567 3093:0.0987654 3114:0.953216 3124:0.233333 3255:0.982456 3294:0.192982 3297:0.298246 3400:0.0614035 3637:0.389864 3669:0.45614 3878:0.167641 3894:0.148148 3930:0.130117 4136:0.0935673 4161:0.251462 4193:0.239766 4227:0.204678 4271:0.374269 4286:0.526316 4349:0.201754 4454:0.273684 4480:0.54386 4718:0.192982 4799:0.0584795 5111:0.0847953 5185:0.269006 5369:0.561404 5454:0.0994152 5576:0.135673 
0 0 0 23.80529944189907 0 0 23:0.619718 249:0.65493 437:0.129108 774:0.36385 919:0.98994 922:0.200704 1014:0.316901 1052:0.373239 1114:0.176056 1205:0.253521 1299:0.460094 1371:0.883803 1454:0.549296 1585:0.577465 1977:1 2008:0.577465 2065:0.0947996 2106:0.204225 2207:0.222535 2249:0.415493 2485:0.420188 2611:0.3833 2616:0.288732 2734:0.591549 2766:0.510563 3046:1 3221:0.507042 3658:1 3669:0.183099 3679:0.288732 3887:0.181338 3922:0.288732 3930:0.15669 3992:0.267606 4083:0.619718 4149:0.195423 4290:0.415493 4413:0.499531 4422:0.197966 4485:0.130282 4560:1 4657:0.100604 4707:0.725352 4781:0.113459 4982:0.338028 5009:0.577465 5080:0.383803 5137:0.13615 5157:0.21831 5172:0.464789 5195:0.464789 5263:0.338028 5376:0.521127 5576:0.16338 5658:0.577465 
104.1452007997215 168.8009459531915 143.5259305266592 156.4967582911182 179.752911730019 109.5943118505513 247:0.735294 999:0.573529 1416:1 1648:0.411765 2028:1 2207:0.464706 2485:0.877451 2594:0.282007 2938:0.411765 3050:1 3086:0.470588 3839:0.676471 4191:0.970588 4317:1 
19.58666339517628 21.07726247564202 51.49652841203214 70.13057089000333 53.77565831406422 41.38405321985139 24:0.226804 37:0.402062 119:0.154639 387:0.737113 437:0.0630011 469:0.226804 475:0.199313 558:1 616:0.316151 779:0.14433 799:0.166237 910:0.453608 922:0.195876 986:0.465979 1052:0.182131 1114:0.0859107 1205:0.123711 1210:0.604811 1225:0.154639 1253:0.159794 1304:0.195876 1325:0.0501718 1371:0.431271 1438:0.275487 1441:0.0911557 1454:0.268041 1624:0.268041 1665:0.728522 1701:0.105547 1810:0.30126 1850:0.244845 2065:0.0462596 2207:0.162887 2244:0.154394 2434:0.130584 2485:0.20504 2527:0.123711 2611:0.18704 2643:0.0630011 2681:0.402062 2691:0.348797 2743:0.129439 2758:0.0615693 2765:1 2766:0.249141 2799:0.0463918 2821:0.0907216 2854:1 2983:0.588539 3046:0.162658 3048:0.728522 3096:0.0989691 3178:1 3199:0.174112 3494:0.14433 3633:0.189003 3756:0.350515 3811:0.0836871 3894:0.0435281 3963:0.233677 3964:0.116838 3990:0.224513 4076:0.130584 4112:0.0996564 4131:1 4203:0.134021 4205:0.0996564 4264:0.247423 4349:0.158076 4366:1 4396:0.10567 4422:0.0966018 4441:0.43299 4533:0.0996564 4728:0.122566 4752:0.230241 4774:0.15693 4873:0.116838 4982:0.247423 5008:0.22795 5098:0.0395189 5137:0.199313 5157:0.106529 5185:0.0790378 5191:0.140893 5197:0.444444 5260:0.130584 5263:0.109966 5445:0.378007 5554:0.659794 5576:0.0797251 
22.37258080895193 0 0 0 35.63221596079536 12.69954586489077 695:0.663158 757:0.242105 791:0.35 999:0.205263 1006:0.4 1075:0.666667 1114:0.263158 1128:0.133333 1205:0.378947 1209:0.361404 1354:0.231579 1392:0.28 1513:0.519298 1572:0.214035 1597:0.0842105 1613:0.915789 1626:1 1713:0.205263 1718:0.238596 1766:0.666667 1772:0.231579 1794:1 2096:0.303158 2518:0.457895 2549:0.248421 2594:0.100929 2623:1 2704:0.407018 3252:0.1 3389:0.457895 3673:0.121053 3733:0.463158 3734:0.152632 4446:0.868421 4550:1 4561:1 4961:0.231579 5102:1 5113:1 5243:0.205263 5323:0.273684 5455:0.568421 5507:0.387719 5576:0.244211 
61.94673122876858 168.8009459531915 97.84456711387766 93.14075390079739 179.752911730019 92.31123273172221 327:1 999:1 1047:1 1713:1 1824:0.820513 2518:0.557692 2538:1 2549:0.605128 3086:0.820513 3688:1 4956:1 5243:1 
35.89996497600258 29.79877100962912 81.71235451760148 43.78969630355564 22.3318724903972 40.07490801567709 50:0.81 119:0.075 133:1 198:0.25625 351:0.566667 524:1 554:0.15 646:0.3125 706:1 884:0.294444 982:0.216667 1035:0.471296 1114:0.208333 1172:0.816667 1205:0.3 1475:0.252778 1494:0.630556 2017:0.216667 2215:0.15 2316:0.107143 2776:0.798333 2871:0.105556 2965:0.2 3110:0.347619 3130:1 3494:0.35 3536:0.658333 3811:0.304412 3913:0.155556 3990:0.272222 3999:0.433333 4065:0.358333 4161:0.358333 4262:0.104167 4362:1 4391:1 4595:0.791667 4643:0.725 4873:0.141667 4942:0.630556 5082:0.775 5088:0.203333 5197:0.269444 5263:0.6 5506:0.6 5510:0.123611 5576:0.193333 5646:0.370833 5700:0.55 
0 0 0 100.908059589745 0 0 132:0.563694 168:0.136943 370:0.757962 449:0.171975 485:0.238217 533:0.417197 609:0.883758 922:0.544586 1047:0.0828025 1114:0.159236 1143:1 1205:0.229299 1416:0.216561 1424:0.240977 1515:0.816879 1586:0.145435 1624:0.993631 1691:0.0652866 1917:0.152866 2092:0.200637 2316:0.0818926 2405:0.157643 2434:0.242038 2459:1 2489:1 2594:0.0610716 2599:0.585987 2637:0.418259 2646:0.333758 2799:0.0859873 3760:0.322718 3848:1 4027:0.828025 4112:0.369427 4161:0.273885 4262:0.0796178 4404:0.592357 4411:0.242038 4655:0.507006 4851:0.359873 4876:0.784349 5047:0.388535 5091:0.140127 5098:0.0732484 5279:0.267516 5331:0.658174 5441:0.545648 5466:1 5577:0.11465 5604:0.235669 5614:0.111057 
9.661333157700936 52.05075390113007 109.9374125077159 156.4967582911182 56.56934088159695 32.72442514841624 65:0.232941 168:0.101176 193:0.197647 256:0.297059 275:0.0747899 280:0.0980392 338:0.0988235 370:0.8 388:0.0355882 393:0.216471 437:0.301961 449:0.127059 452:0.0302521 463:0.0564706 554:0.0423529 624:0.0732026 740:1 870:0.0423529 960:0.0976471 966:0.0435294 1050:0.368627 1053:0.0497255 1060:0.216471 1127:0.108824 1249:0.348235 1325:0.0687059 1362:0.065098 1441:0.0312074 1491:0.0870588 1559:0.411765 1586:0.0537255 1624:0.550588 1705:0.178824 1756:0.0751373 1808:0.132941 1828:0.0462745 1831:0.0326644 1846:0.0725134 1853:0.0478431 1857:0.0216471 1918:0.12 1971:0.0804706 2006:0.0894118 2029:0.195294 2031:0.108235 2061:0.232157 2064:0.0770588 2098:0.144314 2129:0.272941 2169:0.0876471 2250:0.0894118 2274:0.115294 2293:0.0737255 2329:0.352941 2384:0.101176 2412:0.130588 2439:0.127059 2464:0.249412 2485:0.0701961 2577:0.132941 2637:0.463529 2646:0.0616471 2884:0.159529 2889:0.0898824 2991:0.0409412 3079:0.394118 3096:0.271059 3103:0.458824 3152:0.238431 3154:0.112353 3243:0.0462745 3274:0.0462745 3352:0.265882 3369:0.337255 3392:0.0964706 3396:0.0917647 3425:0.310588 3429:0.0352941 3446:0.0392157 3481:0.0658824 3509:0.0884706 3536:0.185882 3578:0.0360784 3581:0.326471 3713:0.477647 3722:0.076955 3849:0.0564706 4050:0.0395294 4080:0.27451 4161:0.202353 4168:0.241569 4244:0.0412026 4381:0.0341176 4390:0.451765 4395:0.174118 4401:0.16 4450:0.0955294 4482:0.169412 4485:0.261176 4510:0.216471 4539:0.717647 4558:1 4570:0.0894118 4589:0.0513725 4704:0.209412 4732:0.0762353 4742:0.00823529 4795:0.09 4863:0.130882 4864:0.155294 4873:0.04 4901:0.411765 4986:0.0761905 4991:0.0964706 5091:0.103529 5310:0.187647 5336:0.0652941 5446:0.143529 5470:0.0211765 5476:0.0752941 5567:0.0873203 5604:0.174118 5722:0.0305882 5742:0.0831373 
104.1452007997215 168.8009459531915 113.582614022337 156.4967582911182 148.3672843122384 65.75316134471734 20:0.450855 370:0.217949 389:0.108974 476:0.232601 602:0.410256 779:0.134615 870:0.115385 873:0.211161 1060:0.294872 1083:0.163818 1325:0.0935897 1362:0.0886752 1398:0.119658 1466:0.105769 1559:0.747863 1624:1 1846:0.0658508 1883:0.115385 1886:0.689977 2031:0.294872 2092:0.201923 2221:0.957692 2293:0.602564 2371:0.294872 2405:0.158654 2434:0.487179 2594:0.061463 2912:0.121795 2936:1 2938:0.0897436 2965:0.153846 2979:0.192308 3053:0.211538 3172:0.346154 3245:0.75 3429:0.192308 3437:0.269231 3601:0.260684 3619:0.782051 3622:0.307692 3636:0.12112 3673:0.0737179 3697:0.440705 4111:0.115385 4236:0.46688 4296:0.111305 4543:1 4589:0.279915 5066:1 5191:0.13141 5281:0.782051 5363:0.0769231 5722:0.333333 
104.1452007997215 141.8930721841657 143.5259305266592 101.2711769923561 145.8096580491775 109.5943118505513 50:0.0910112 119:0.0505618 124:0.188764 133:0.674157 278:0.550562 452:0.0722311 461:0.325843 467:0.679775 469:0.185393 476:0.203852 706:0.337079 813:0.182584 833:1 910:0.123596 999:0.219101 1114:0.140449 1209:0.192884 1283:0.185393 1299:0.183521 1393:0.524345 1497:0.340824 1537:0.0955056 1582:0.0780275 1615:0.253745 1691:0.0575843 1918:0.143258 2084:0.0926966 2115:0.151685 2140:1 2154:0.146067 2207:0.088764 2210:0.483146 2257:0.289326 2306:0.187079 2471:0.182584 2483:0.404494 2522:0.207865 2937:0.173355 3082:0.44382 3086:0.0898876 3129:0.17603 3184:0.0955056 3197:0.280899 3198:0.188202 3573:0.254682 3673:0.129213 3697:0.386236 3811:0.136814 4013:0.47191 4051:0.702247 4065:0.241573 4068:0.162921 4083:0.494382 4138:0.233146 4243:1 4341:0.257022 4462:0.570225 4655:0.223596 4657:0.0802568 4719:0.859551 4931:0.125 4982:0.134831 5197:0.363296 5263:0.179775 5306:0.33427 5576:0.130337 5583:0.211236 
104.1452007997215 168.8009459531915 100.2091098797999 156.4967582911182 179.752911730019 109.5943118505513 1012:0.851852 1183:0.925926 1718:0.839506 3184:0.314815 3669:0.962963 4349:0.851852 4956:0.722222 5397:1 
104.1452007997215 168.8009459531915 143.5259305266592 156.4967582911182 179.752911730019 85.49711204525728 61:0.622222 449:0.6 888:0.572222 922:0.633333 1028:0.265278 1398:0.207407 1624:0.433333 2316:1 2485:0.331481 2549:0.131111 2646:0.291111 2683:0.247222 2958:0.347222 2965:0.266667 3096:0.32 3349:0.177778 3369:0.318519 3805:0.247222 4161:0.477778 4324:0.6 4369:0.32037 4560:0.788889 5083:0.32963 5203:0.422222 5445:0.611111 5604:0.411111 5623:1 5742:0.785185 
0 22.26710506073043 0 0 0 0 24:0.311321 37:0.735849 119:0.0849057 134:0.313679 141:0.356604 231:0.108491 249:0.146226 387:0.233491 438:0.449528 469:0.15566 522:0.146226 675:0.221698 774:0.243711 799:0.228184 813:0.306604 910:0.103774 986:0.85283 1114:0.117925 1122:0.191038 1205:0.169811 1253:0.438679 1449:0.160377 1665:1 1691:0.0966981 1810:0.206761 1850:0.67217 1971:0.322642 1977:0.133962 1985:0.731132 2065:0.0634978 2106:0.136792 2115:0.509434 2157:0.182652 2207:0.298113 2263:0.386792 2397:0.207547 2434:0.179245 2485:0.140723 2611:0.256739 2643:0.086478 2668:0.504717 2681:0.919811 2734:0.396226 2758:0.33805 2765:0.457547 2766:0.683962 2799:0.254717 2937:0.0727763 2983:0.269284 3045:0.292453 3048:1 3059:0.132075 3129:0.295597 3134:0.242925 3293:0.429245 3498:0.0554939 3658:0.334906 4187:0.102201 4254:1 4589:0.102987 4615:0.165094 4781:0.0759958 4982:0.339623 5157:0.146226 5263:0.415094 5275:1 5323:0.122642 5445:0.259434 5567:0.175052 5576:0.328302 5621:0.144879 
0 0 49.01797990027224 4.446334365473654 0 21.68555724749782 119:0.0837209 231:0.0534884 358:0.19845 387:0.537209 437:0.170543 438:0.443256 461:0.134884 469:0.306977 522:0.144186 586:0.210853 648:0.25814 774:0.24031 910:0.511628 1022:0.0697674 1114:0.116279 1205:0.167442 1253:0.432558 1325:0.067907 1336:0.0837209 1381:0.123256 1438:0.372868 1608:0.67907 1615:0.84031 1701:1 1850:0.662791 1879:0.0604651 1960:0.413953 2006:0.353488 2065:0.0626118 2076:1 2122:0.167442 2140:0.413953 2434:0.353488 2616:0.190698 2643:0.852713 2649:0.072093 2664:0.188372 2758:1 2934:0.153488 2970:0.95814 3059:0.260465 3086:0.0744186 3598:1 3658:0.330233 3675:0.269767 3756:0.474419 3811:0.226539 3935:0.586047 3964:0.0790698 4138:0.193023 4161:0.8 4266:0.0953488 4456:0.111628 4643:0.404651 4781:0.149871 4807:0.172093 4881:0.121964 4982:0.334884 5080:0.253488 5091:0.102326 5197:0.150388 5263:0.297674 5498:0.586047 5554:0.446512 5576:0.107907 5621:1 
0 0 0 0 62.2348072823182 0 111:1 452:0.247253 609:0.889423 652:0.355769 982:1 1114:0.480769 1205:0.692308 1316:0.334615 1718:0.871795 1870:0.692308 2584:0.269231 3108:1 3179:0.319231 3188:0.5 3839:0.884615 3959:0.358974 3990:0.628205 4112:0.557692 5185:0.442308 5423:0.336279 
104.1452007997215 168.8009459531915 143.5259305266592 156.4967582911182 179.752911730019 109.5943118505513 135:0.0885122 145:0.0754237 213:0.266102 231:0.0487288 276:0.292373 358:0.361582 388:0.064089 482:0.0466102 560:1 716:1 750:0.163625 799:0.102489 870:0.0762712 913:0.385593 1114:0.105932 1163:0.0444915 1167:1 1183:0.105932 1205:0.152542 1354:0.0932203 1523:0.0651483 1733:0.029661 1853:0.0861582 1897:0.355932 1918:0.108051 1939:0.123588 2006:0.161017 2068:0.29661 2147:0.690678 2196:0.0713277 2462:0.0667373 2468:0.0974576 2527:0.0762712 2624:0.0985169 2952:0.0932203 3068:0.15113 3072:1 3186:0.175847 3425:0.279661 3429:0.0635593 3642:0.10678 3673:0.146186 3809:0.125706 4065:0.182203 4197:0.152542 4210:0.207627 4283:0.146186 4295:0.491525 4349:0.146186 4485:0.0783898 4659:0.188862 4831:0.322034 4851:0.239407 4901:0.185381 4988:1 5002:0.095339 5030:0.0783898 5098:0.0487288 5143:0.0974576 5291:0.139831 5302:0.114407 5323:0.110169 5468:0.559322 5506:0.305085 5577:0.152542 5630:0.648305 5632:0.173729 5689:0.0508475 5732:0.966102 
58.35910390913741 126.8418386039955 88.2659101843194 54.03501708341342 102.5466887154105 54.95979264599148 70:0.810526 122:1 229:1 249:0.326316 791:0.35 870:0.189474 888:0.542105 978:0.631579 1128:0.266667 1281:0.8 1398:0.196491 1491:0.194737 1513:0.259649 1661:1 1733:0.0736842 2594:0.504644 2923:0.813158 3093:0.177778 3094:0.550376 3429:0.157895 3942:0.505263 4295:0.305263 4353:0.352632 4384:1 5098:0.121053 5099:0.642105 5185:0.242105 5254:1 5323:0.273684 5576:0.732632 
20.84400602186568 168.8009459531915 18.95461438912814 15.71481296131332 179.752911730019 109.5943118505513 333:1 437:0.232068 472:0.626582 690:0.582278 779:0.531646 870:0.227848 1114:0.316456 1151:1 1183:0.316456 1205:0.455696 1336:0.455696 1491:0.234177 3339:0.751055 3539:1 3601:0.514768 3673:0.436709 4664:0.582278 4961:0.278481 4962:0.903603 5066:0.987342 5211:0.438819 
31.28483381003325 0 0 0 0 0 3:0.728155 61:0.543689 119:0.0873786 142:0.786408 166:1 423:1 449:0.524272 508:0.902913 872:0.0339806 999:0.18932 1114:0.242718 1127:0.449029 1200:1 1205:0.349515 1209:1 1299:0.317152 1304:0.553398 1713:0.18932 2096:0.279612 2106:0.563107 2257:1 2306:0.646602 2406:0.961165 2434:0.737864 2483:0.699029 2554:1 2629:0.76699 2649:0.150485 3184:0.0825243 3349:0.15534 3481:0.271845 3505:0.507628 3887:1 4112:0.563107 4381:0.140777 4614:0.271845 4781:0.312837 4846:0.300971 5291:0.320388 5365:1 5476:0.15534 5628:0.291262 5681:0.271845 5692:0.72233 
104.1452007997215 168.8009459531915 143.5259305266592 156.4967582911182 179.752911730019 109.5943118505513 522:0.563636 659:0.301604 1179:1 1209:0.624242 1636:0.604545 1718:0.412121 2134:0.630303 2620:1 2649:0.563636 2830:0.513636 3294:0.6 3688:0.354545 3849:0.436364 3970:1 4221:0.372727 4446:1 5256:0.690909 5506:0.654545 5507:0.334848 5536:1 
61.04234447532856 68.91242621596746 74.52777082270057 68.13360750070095 56.47511709005656 75.43652163243198 77:0.0673913 108:0.0550725 132:0.384783 133:0.521739 135:0.0908213 148:0.0775362 207:1 249:0.269565 255:0.202174 351:0.0985507 458:0.142029 461:0.378261 472:0.430435 502:0.221739 522:0.134783 625:1 699:0.317391 725:0.232609 884:0.153623 926:0.608696 1328:0.106522 1402:0.0950311 1475:0.263768 1504:0.217391 1657:0.543478 1722:0.178261 1857:0.12 1991:0.101739 2115:0.117391 2144:0.130435 2257:0.447826 2316:0.0559006 2356:1 2406:0.143478 2434:0.165217 2437:0.22029 2480:0.0965217 2482:0.652174 2497:1 2541:0.134783 2594:0.083376 2611:0.828261 2628:0.1 2650:0.321739 2772:0.0413043 2842:0.7 3053:0.143478 3166:0.745652 3242:0.721739 3442:0.117391 3612:0.0654891 3673:0.05 3833:0.315942 3878:0.0623188 3913:0.243478 3944:1 4133:0.124638 4161:0.747826 4266:0.0891304 4352:0.469565 4411:0.165217 4423:0.16087 4581:0.152174 4586:0.202174 4615:0.152174 4708:1 4728:0.155072 4873:0.073913 5061:0.165217 5098:0.25 5123:0.0782609 5256:0.165217 5576:0.10087 5655:0.295652 5671:0.0978261 5725:0.0921739 5744:0.316848 
2.698500713775813 0 42.27633349353416 30.32492668232027 33.96545565548684 0 53:1 132:1 168:0.121469 267:0.418079 275:0.17958 384:0.279661 605:0.0429953 657:1 747:1 841:0.101695 870:0.101695 960:0.234463 1014:0.254237 1053:0.716384 1114:0.141243 1164:0.039548 1205:0.20339 1249:0.20904 1424:0.641243 1463:0.764885 1549:0.188324 1701:0.173527 1705:0.429379 1899:0.103578 1971:0.579661 2064:0.185028 2092:0.177966 2129:0.109228 2250:0.107345 2274:0.276836 2316:0.0726392 2468:0.129944 2485:0.16855 2496:0.508475 2730:1 2764:1 2798:0.983051 2870:0.414313 2884:0.383051 2937:0.0871671 2965:0.135593 3096:0.162712 3154:0.0899247 3352:0.638418 3369:0.161959 3396:0.440678 3529:0.152542 3581:0.261299 3685:0.760291 3942:0.0903955 4083:0.497175 4203:0.220339 4280:0.468927 4377:0.474576 4482:0.813559 4570:0.214689 4579:0.196328 4704:0.502825 4717:0.474576 4876:0.347861 5038:0.344633 5336:0.15678 5383:0.897363 5389:1 5441:0.483992 5567:0.419335 5600:0.725989 5604:0.418079 5664:0.419492 
104.1452007997215 168.8009459531915 143.5259305266592 156.4967582911182 179.752911730019 109.5943118505513 77:0.120529 103:0.0581409 115:0.172628 121:0.0401475 134:0.103421 145:0.0276827 243:0.25972 249:0.0482115 295:0.0676516 351:0.0352514 358:0.0663556 416:0.0233281 437:0.0285122 451:0.18507 485:0.11633 494:0.208398 591:0.0637636 605:0.0828479 698:0.135303 799:0.0752333 841:0.0559876 872:0.0326594 879:0.136858 884:0.109902 906:0.31546 909:0.335407 922:0.0443235 965:0.0274754 999:0.0303266 1006:0.059098 1012:0.0357698 1022:0.0233281 1032:0.164852 1098:0.177294 1103:0.0147745 1127:0.143857 1139:0.0417027 1142:0.0209953 1164:0.0217729 1183:0.0388802 1209:0.160187 1216:0.035381 1225:0.0349922 1269:0.279938 1277:0.0461379 1283:0.25661 1328:0.0381026 1398:0.0870918 1409:0.0427683 1430:0.112494 1436:0.111531 1474:0.162186 1478:0.2014 1546:0.0419907 1586:0.0355106 1589:0.209176 1612:0.0769541 1618:0.158631 1635:0.0715397 1713:0.121306 1719:0.443235 1733:0.0108865 1772:0.0342146 1818:0.034659 1827:0.111975 1849:0.111975 1867:0.149967 1871:0.956973 1898:0.025873 2006:0.059098 2019:0.0839813 2088:0.0357698 2098:0.190772 2106:0.0902022 2144:0.0155521 2170:0.115604 2173:0.0614308 2207:0.0245723 2412:0.0863142 2448:0.13437 2471:0.151633 2483:0.111975 2485:0.0463971 2498:0.0847589 2513:0.321928 2527:0.0839813 2563:0.0427683 2675:0.0738725 2685:0.148263 2688:0.0382582 2799:0.0419907 2813:0.0715397 2852:0.132193 2918:0.0870918 2938:0.0217729 2979:0.0233281 3084:0.0186625 3091:0.0676516 3190:0.118196 3208:1 3394:0.0902022 3403:0.359253 3429:0.0233281 3483:0.0489891 3498:0.10978 3505:0.0271051 3578:0.0238466 3594:0.0653188 3636:0.0293853 3669:0.0808709 3673:0.0715397 3820:0.537066 3822:0.182348 3833:0.226024 3840:0.0375472 3865:0.143079 3883:0.127749 3942:0.0248834 3971:0.0244168 4001:0.115167 4012:0.0461379 4017:0.214619 4045:0.0160705 4079:0.610679 4094:0.238569 4106:0.14619 4138:0.0645412 4149:0.215785 4217:0.166096 4262:0.0194401 4286:0.139969 4302:0.176361 4315:0.0746501 4349:0.357698 4353:0.0520995 4476:0.0248834 4579:0.162131 4589:0.0339554 4615:0.0544323 4704:0.138414 4706:0.00933126 4725:0.364956 4730:0.111975 4732:0.0503888 4819:0.0533955 4836:0.0870918 4851:0.0878694 4855:0.122862 4888:0.51944 4901:0.0680404 4912:0.0234634 4931:0.0346034 4995:0.606013 5002:0.209953 5036:0.118196 5094:0.0637636 5182:0.0466563 5198:0.0469051 5217:0.0692068 5323:0.202177 5341:0.0793157 5343:0.0755388 5352:0.159947 5376:0.230171 5492:0.0676516 5506:0.0559876 5609:0.18507 5671:0.244946 5681:0.130638 5718:0.0522551 
55.24957597124624 78.86335967611105 64.22099713746478 0 51.61561581516496 37.97386098187459 122:0.95 234:0.38 283:0.31 364:1 416:0.15 879:0.22 1122:0.135 1183:0.5 1209:0.343333 1312:0.453333 1316:0.348 1398:0.186667 1424:0.378333 1870:0.72 2070:0.226 2210:0.215 2275:0.736667 2465:1 2937:0.154286 3094:0.348571 3406:0.24 3673:0.115 3887:0.515 3899:1 3901:0.115 4088:0.557143 4112:0.29 4221:0.205 4566:0.386667 4657:1 4997:1 5094:0.41 5098:0.115 5576:0.696 5598:1 5671:0.225 
59.01892136848497 168.8009459531915 86.04213244129588 156.4967582911182 179.752911730019 20.94336545233616 51:0.119792 111:0.270833 370:0.0885417 452:0.0669643 554:0.09375 609:0.240885 652:0.385417 762:0.529514 841:0.09375 872:0.0364583 982:0.270833 1114:0.130208 1160:0.28125 1205:0.1875 1272:0.421875 1316:0.54375 1572:0.105903 1582:0.072338 1828:0.102431 1917:0.125 2201:0.268229 2329:0.130208 2489:0.204427 2594:0.0499387 2599:0.479167 2900:0.270833 2940:0.411458 3094:0.0907738 3095:1 3108:0.541667 3188:0.135417 3315:0.201389 3316:0.340278 3469:0.421875 3509:0.391667 3684:0.411458 3839:0.838542 3959:0.388889 4390:1 4438:0.659722 4450:0.634375 4746:0.194444 4961:0.114583 4981:1 5036:0.197917 5185:0.239583 5194:0.175595 5336:0.144531 5350:0.415365 5387:0.0390625 5423:0.0910755 5547:0.120443 5623:0.46875 5727:0.262153 
104.1452007997215 168.8009459531915 143.5259305266592 156.4967582911182 179.752911730019 78.86317987498184 119:0.297521 122:0.785124 124:0.138843 452:0.106257 467:1 475:0.239669 686:1 884:0.292011 905:0.214876 1653:1 2096:0.238017 2293:0.258953 2611:0.224911 2691:0.838843 2723:0.57438 2744:1 2924:0.101928 3154:0.131543 3243:0.162534 3264:0.338843 3518:0.136364 3561:1 4778:0.169421 4851:0.466942 5148:1 5256:0.31405 5576:0.575207 5583:0.155372 
21.22442052983261 168.8009459531915 17.04349860527089 0 27.3076005940957 49.07466737540398 106:0.79386 274:0.43797 452:0.592105 652:0.243421 654:0.868421 762:0.802632 872:0.0460526 1114:0.328947 1205:0.473684 1316:0.228947 1531:0.473684 1572:0.401316 1582:0.274123 1733:0.0921053 2293:0.412281 2513:0.907895 2594:0.126161 2602:1 2608:0.921053 3199:1 3407:0.194236 3684:0.519737 3959:0.245614 4349:0.0756579 4438:1 4475:0.921053 4663:0.611842 4831:1 5423:0.230085 5589:0.585526 5646:0.585526 5689:0.157895 
0 0 0 0 33.94325368084149 4.646449044242185 246:0.931727 280:0.167336 370:0.409639 449:0.325301 460:1 543:1 641:0.915663 920:0.232623 1114:0.301205 1362:1 1491:0.222892 1857:0.110843 2064:0.394578 2129:0.232932 2316:0.154905 2371:0.554217 2594:0.231042 2710:0.855422 2817:1 2871:0.305221 2880:1 3467:0.915663 3523:1 3618:0.364458 3636:0.227647 3673:0.138554 3942:0.192771 4138:1 4401:0.409639 4417:1 4589:0.263052 4645:1 4822:0.433735 4956:0.23494 4978:0.855422 5098:0.138554 5232:0.0722892 5243:0.23494 5415:0.364888 
0 0 0 0 0 38.64678414665917 3:0.2149 17:0.130372 90:0.358166 132:0.253582 198:0.176218 245:0.103152 280:0.0397962 370:0.0487106 371:0.0678128 384:0.0709169 406:0.332378 420:0.32808 431:0.229226 452:0.515759 465:0.22063 475:0.166189 485:0.107163 625:0.0823782 657:0.112703 703:0.0596944 779:0.0200573 794:0.145813 821:0.0542025 843:0.131805 870:0.103152 879:0.0630372 920:0.0553229 982:0.148997 999:0.0558739 1014:0.25788 1047:0.0372493 1050:0.224451 1068:0.0536226 1071:0.246418 1114:0.0716332 1122:0.0386819 1127:0.132521 1128:0.0725883 1163:0.0601719 1179:0.052531 1205:0.103152 1209:0.295129 1328:0.140401 1336:0.206304 1346:0.0840497 1362:0.0396371 1380:0.326648 1388:0.252149 1407:0.221585 1441:0.0380033 1454:0.111748 1467:0.338109 1486:0.153295 1506:0.567335 1527:0.0315186 1662:1 1702:0.125119 1705:0.653295 1713:0.0558739 1718:0.0649475 1827:0.206304 1846:0.0294347 1849:0.206304 1862:1 1899:0.052531 1917:0.275072 2002:0.13467 2070:0.0647564 2098:0.17574 2115:0.0773639 2129:0.166189 2274:0.140401 2468:0.0659026 2480:0.0636103 2485:0.170965 2489:0.112464 2496:0.25788 2594:0.521996 2629:0.226361 2631:0.252149 2674:1 2681:0.111748 2704:0.553964 2751:0.0358166 2757:0.217765 2870:0.210124 2871:0.0362942 2912:0.108883 2937:0.0442079 3009:0.188157 3049:0.0558739 3093:0.145177 3096:0.165043 3148:0.108883 3154:0.0456065 3179:0.0951289 3243:0.169054 3252:0.0272206 3257:0.510029 3262:0.0830946 3266:0.0612464 3369:0.0821394 3429:0.0429799 3457:0.103152 3505:0.149816 3543:0.39255 3636:0.216559 3690:0.130086 3733:0.504298 3741:0.0470175 3839:0.131805 3849:0.0687679 3887:0.0737822 3942:0.0458453 3983:0.0974212 3992:0.108883 4027:0.186246 4083:0.252149 4093:0.148997 4140:0.25788 4168:0.147087 4216:0.0487106 4267:0.200573 4310:0.140974 4317:0.0487106 4423:0.212034 4428:0.0243553 4480:0.266476 4490:0.515759 4647:1 4717:0.240688 4719:0.146132 4799:0.0573066 4822:0.103152 4865:0.271251 4890:0.108883 4997:0.286533 5036:0.108883 5045:0.0601719 5061:0.108883 5089:1 5098:0.0988539 5134:0.282235 5159:0.747851 5185:0.131805 5196:0.206304 5211:0.0496657 5228:0.203438 5319:0.25788 5323:0.297994 5324:0.036533 5336:0.238539 5349:0.12894 5451:0.0780802 5476:0.0916905 5478:0.323782 5540:0.124642 5551:0.078319 5553:0.0329513 5576:0.132951 5604:0.0530086 5628:0.0859599 5638:0.332378 5681:0.0802292 5726:0.174785 5739:0.12894 
104.1452007997215 168.8009459531915 143.5259305266592 156.4967582911182 108.2498030528402 52.2794256422674 138:1 267:0.18593 300:0.311558 375:0.556784 401:0.346734 459:0.422111 476:0.18234 913:0.228643 1114:0.125628 1183:0.251256 1341:0.760469 1441:0.333245 1586:0.11474 1828:0.296482 1834:0.623116 1857:0.0462312 1917:0.120603 1960:0.149079 1971:0.171859 2267:0.120603 2329:0.125628 2405:0.373116 2592:0.562814 2647:0.129083 2683:0.111809 2813:0.809045 2884:0.340704 2941:0.256281 2952:0.110553 2996:0.0661642 3014:0.366834 3184:0.0854271 3198:0.168342 3199:0.254606 3213:0.668342 3274:0.296482 3369:0.144054 3429:0.0753769 3675:0.291457 3734:0.0728643 3913:0.0938023 4327:0.0703518 4341:0.229899 4418:0.221106 4473:0.341709 4570:0.190955 4579:0.174623 4589:0.21943 4655:1 4742:0.0175879 4763:0.190955 4778:0.103015 4956:0.0979899 4973:0.291457 5036:0.190955 5185:0.115578 5194:0.338837 5203:0.190955 5341:0.256281 5355:0.108543 5402:0.201005 5445:0.276382 5453:0.492462 5506:0.180905 5567:0.186488 5580:0.170854 5604:0.650754 5681:0.140704 
0 45.37572930232039 24.37967706871025 0 73.61456542194487 32.39980366514087 119:0.264706 141:0.741176 387:0.242647 469:0.970588 502:0.75 910:0.970588 1012:0.338235 1253:0.683824 1446:0.808824 1484:1 1718:1 2106:0.426471 2821:0.388235 3045:0.455882 3525:0.323529 3963:1 3964:0.25 4077:0.367647 4162:1 4221:0.301471 4473:1 4584:0.25 4586:0.683824 4591:1 5111:0.213235 5263:0.235294 5341:0.75 5544:0.279412 5576:0.341176 5655:1 
9.246088313129434 36.22984040312195 18.47434755172739 101.906044163111 77.49404680552283 109.5943118505513 74:1 166:0.673203 278:0.640523 388:0.197712 420:0.748366 459:0.183007 499:0.601307 520:1 638:1 873:0.215302 899:0.568627 1103:0.310458 1108:0.51634 1114:0.163399 1122:0.0882353 1205:0.235294 1277:0.581699 1279:0.0457516 1390:0.303922 1733:0.0457516 1853:0.132898 1918:0.166667 2115:0.176471 2207:0.103268 2269:0.336601 2306:0.652941 2486:0.437908 2527:0.235294 2621:0.248366 2628:0.300654 2747:0.627451 2779:0.428105 2871:0.0827887 2924:0.40305 3009:0.429194 3051:0.51634 3078:0.131808 3134:0.336601 3243:0.12854 3264:0.267974 3369:0.187364 3847:0.941176 3848:0.146592 4045:0.0675381 4244:0.114452 4401:0.444444 4431:0.614379 4743:0.431373 4781:0.105301 4881:0.257081 5172:0.431373 5365:0.336601 5459:0.269608 5576:0.151634 5692:0.972549 
18.69612455647372 0 16.97978369580554 17.55636057931678 58.50655907112252 0 119:0.0918367 278:1 432:0.693878 458:1 461:0.295918 872:0.142857 1028:0.487245 1052:0.540816 1114:0.255102 1172:1 1299:1 2041:0.346939 2085:1 2096:0.293878 2145:0.316327 2207:0.161224 2268:0.489796 2482:0.765306 2633:0.385204 2769:0.979592 2774:0.489796 2924:0.251701 3045:0.316327 3166:1 3239:0.510204 3411:0.673469 3421:1 3673:0.117347 3990:1 4060:0.489796 4068:0.295918 4161:0.438776 4191:0.22449 4413:0.0904762 4456:0.244898 4581:0.357143 4931:0.227041 5263:0.163265 5561:0.781633 5576:0.473469 
17.82037300843704 46.74638079928064 0.1397839337014019 0 62.46156764270097 14.43026822329096 20:0.772894 32:0.257143 51:0.252747 74:0.840659 741:0.252747 779:0.0769231 913:1 999:0.214286 1114:0.274725 1183:0.274725 1354:0.241758 1362:0.152015 1398:0.205128 1491:0.203297 1713:0.214286 1831:0.152553 1865:0.835165 2070:0.248352 2223:1 2463:0.166154 2549:0.12967 2913:0.378022 3032:0.551648 3272:1 3615:1 3899:0.32967 4168:0.564103 4191:0.362637 4295:0.318681 4704:0.978022 4734:0.384615 4791:0.318681 4956:0.214286 5008:0.364469 5092:0.567033 5609:0.373626 
21.72031852215585 0 0 0 0 26.58861187372515 53:0.637838 135:0.225826 249:0.335135 267:1 370:0.551351 431:0.432432 605:0.164544 609:1 634:0.435811 657:0.212613 922:0.77027 1114:0.27027 1127:1 1164:0.151351 1205:0.389189 1515:0.693243 1586:0.246847 1742:1 1831:0.450238 2106:0.313514 2129:0.209009 2434:0.205405 2459:0.848649 2489:0.848649 2594:0.103657 2884:0.732973 2991:0.188108 3581:1 3848:0.484942 4027:0.702703 4112:0.313514 4161:0.464865 4168:0.554955 4262:0.135135 4306:1 4327:0.454054 4570:0.410811 5098:0.124324 5358:0.533333 5389:0.956757 5466:0.424324 5604:0.2 
104.1452007997215 168.8009459531915 98.84418947060537 107.1489643576749 179.752911730019 38.18770158215795 50:0.286726 119:0.159292 134:0.588496 135:0.184857 227:0.379056 554:0.318584 706:0.530973 739:0.117994 1114:0.221239 1163:0.0929204 1205:0.318584 1304:0.504425 1512:0.159292 2269:0.455752 2316:0.22756 2471:0.287611 2774:0.212389 2983:0.168402 3048:0.625369 3433:0.513274 3585:0.477876 3655:1 3733:0.389381 3734:0.128319 3793:0.112516 3833:0.643068 3860:0.207965 4027:0.575221 4083:0.778761 4149:0.245575 4262:0.110619 4401:0.300885 4421:0.10177 4522:0.212389 4629:0.292035 4851:1 4870:0.0530973 5115:0.721239 5263:0.141593 5604:0.327434 
64.58708121698439 109.8414085784801 69.09160446012972 81.05444036601274 88.94877755341096 109.5943118505513 26:0.0505529 51:0.0363349 64:0.0528348 97:0.224961 246:0.183254 247:0.0394945 249:0.244866 281:0.0549537 339:0.412322 389:0.0268562 416:0.0236967 452:0.182803 472:0.0781991 475:0.0916272 542:0.0963665 554:0.056872 602:0.0505529 643:0.146919 695:0.199052 697:0.161137 699:0.115324 716:0.149131 779:0.442338 791:0.210111 857:0.0600316 912:0.0150079 914:0.168444 940:0.0837283 949:0.0558189 978:0.0947867 999:0.0616114 1142:0.021327 1151:0.124803 1183:0.0394945 1283:0.0521327 1328:0.116114 1336:0.028436 1346:0.139021 1354:0.0347551 1449:0.0537125 1491:0.0292259 1504:0.0394945 1568:0.183254 1636:0.157583 1713:0.0308057 1733:0.0331754 1766:0.0200105 1771:0.300158 1772:0.0347551 1846:0.0162286 1857:0.0290679 1869:0.0323855 1994:0.059505 2060:0.056872 2064:0.0517378 2129:0.0610848 2132:0.00922249 2204:0.0787915 2257:0.0813586 2260:0.14534 2281:0.076356 2384:0.0679305 2463:0.0477725 2477:0.128752 2480:0.0701422 2485:0.0471301 2518:0.0687204 2527:0.028436 2532:0.0978673 2549:0.093207 2594:0.318093 2629:0.249605 2688:0.0388626 2716:0.0584518 2807:0.0489731 2814:0.0505529 2845:0.222222 2861:0.453397 2871:0.0400211 2890:0.21485 2912:0.0900474 2923:0.0813586 2991:0.0274882 3009:0.103739 3045:0.0489731 3052:0.073723 3058:0.056872 3096:0.181991 3134:0.0813586 3238:0.14534 3243:0.093207 3245:0.184834 3252:0.0450237 3255:0.132701 3373:0.64455 3389:0.0687204 3429:0.0236967 3444:0.174566 3455:0.114534 3673:0.0181675 3688:0.0308057 3734:0.0229068 3878:0.0226435 3887:0.0406793 3901:0.0181675 3913:0.0589784 3917:0.0379147 3921:0.0663507 3926:0.0365606 3942:0.126382 3950:0.146919 3953:0.00947867 3981:0.14376 4027:0.205371 4034:0.257504 4056:0.0839916 4203:0.0616114 4208:0.137441 4216:0.21485 4221:0.0323855 4289:0.0505529 4302:0.0597156 4305:0.042654 4336:0.150151 4341:0.0722749 4356:0.0995261 4391:0.0631912 4446:0.0868878 4491:0.11585 4510:0.0242233 4521:0.605055 4549:1 4550:0.150079 4566:0.0610848 4584:0.0268562 4609:0.0647709 4655:0.12575 4657:0.0677048 4709:0.343602 4851:0.267773 4864:0.0521327 4954:0.467615 4961:0.0695103 4962:0.028193 4973:0.0916272 5002:0.035545 5028:0.758294 5030:0.0292259 5036:0.0600316 5062:0.0681938 5092:0.0271722 5098:0.0726698 5211:0.136914 5232:0.0189573 5241:0.335703 5256:0.0600316 5332:0.576619 5341:0.161137 5349:0.07109 5398:0.056872 5439:0.0505529 5446:0.0963665 5453:0.154818 5462:0.0600316 5470:0.014218 5487:0.0731212 5507:0.174566 5576:0.366509 5584:1 5702:0.116114 5729:0.0939968 5746:0.126847 
19.44347406193499 0 1.875962519178331 79.99295814981956 0 68.33479209180969 61:0.99115 135:0.184857 416:0.132743 757:0.20354 1103:0.0840708 1114:0.221239 1205:0.318584 1441:0.117373 1746:1 1803:1 1846:0.181818 1917:0.212389 2088:0.814159 2098:0.814159 2190:0.274336 2207:0.838938 2316:0.34134 2485:0.264012 2681:0.690265 2743:1 2934:0.292035 3294:0.292035 3684:0.349558 3921:0.371681 3942:0.424779 3958:0.106195 4047:0.630531 4088:0.0986094 4161:0.380531 4168:0.908555 4302:0.334513 4349:0.814159 4454:0.414159 4657:0.126422 4863:0.492257 4931:0.393805 5098:0.10177 5211:0.153392 5476:0.141593 5576:0.20531 5604:0.163717 
0 0 6.944831426303732 0 26.0667697319082 0 119:0.109756 452:0.156794 554:0.219512 899:0.530488 919:1 1114:0.304878 1205:0.439024 1299:0.398374 1454:0.95122 1585:1 2008:1 2077:1 2207:0.192683 2263:1 2374:0.676829 2442:1 2509:0.207317 2611:0.331882 2616:1 3174:0.719512 3221:0.878049 3658:0.865854 3669:0.317073 3679:1 3922:1 4112:0.353659 4413:0.21626 4560:0.865854 4657:0.348432 4781:0.196477 4873:0.207317 4982:0.585366 5009:1 5137:0.235772 5157:0.378049 5576:0.282927 5658:1 
20.04627979286476 3.202996813223339 0 0 84.05355683725219 0 24:1 119:0.0681818 198:0.232955 387:0.25 472:0.375 739:0.10101 919:0.0887446 999:0.147727 1114:0.189394 1205:0.272727 1253:0.469697 1398:0.141414 1454:0.295455 1484:0.257576 1803:0.856061 1810:0.332071 2017:0.19697 2197:1 2374:0.420455 2397:1 2434:0.287879 2471:0.492424 2821:1 3045:0.234848 3342:0.181818 3349:0.121212 3843:0.132035 3963:0.343434 4112:0.219697 4126:0.772727 4413:0.0671717 4533:0.219697 4584:0.128788 4591:0.515152 4743:0.125 4982:0.545455 5030:0.140152 5111:0.109848 5129:0.318182 5195:1 5263:0.848485 5553:0.0871212 5576:0.175758 5604:0.140152 5621:0.465368 5660:0.204545 5700:0.5 
104.1452007997215 119.5645131023929 143.5259305266592 156.4967582911182 179.752911730019 66.09060532992574 106:1 227:0.236648 244:1 348:0.256906 631:0.58318 638:0.483031 872:0.038674 997:0.839779 1089:1 1102:0.190608 1398:0.103131 1582:0.0767342 1752:0.202295 1801:0.178637 2097:0.0783526 2513:0.571823 2594:0.0529737 2651:0.618785 2778:0.223757 2896:0.267403 3188:0.143646 3396:0.21547 3665:0.0497238 3863:0.149171 4096:0.674033 4149:0.153315 4207:0.320442 4221:0.11326 4349:0.508287 4675:0.475138 4827:0.417127 4882:1 4981:0.707182 5171:0.0718232 5341:0.563536 5455:0.298343 5692:0.616575 5693:0.256906 
80.94800098392071 168.8009459531915 143.5259305266592 81.16349454130733 120.5016514372663 109.5943118505513 283:0.236641 351:0.173028 475:0.221374 533:1 554:0.137405 586:0.346056 779:0.0534351 871:0.219847 905:0.198473 931:1 1114:0.19084 1205:0.274809 1249:0.564885 1917:0.183206 1961:1 2064:1 2115:0.206107 2471:0.248092 2522:0.282443 2594:0.219578 2646:1 2689:0.0248092 2979:0.114504 3251:0.366412 3443:0.175573 3764:0.416794 3928:1 4161:0.328244 4418:0.335878 4580:1 4991:0.625954 5100:0.580153 5247:1 5604:0.141221 5628:0.229008 5632:0.312977 5681:0.21374 
104.1452007997215 168.8009459531915 143.5259305266592 156.4967582911182 179.752911730019 109.5943118505513 3:0.535714 124:0.24 351:0.161905 370:0.121429 408:0.721429 511:0.95 554:0.128571 779:0.35 791:0.2375 931:0.467857 982:0.185714 1449:0.242857 1465:0.807143 1513:0.17619 1636:0.7125 1718:0.161905 2371:0.328571 2406:0.235714 2468:0.164286 2683:0.158929 3018:0.22381 3188:0.185714 3279:0.0935065 3301:1 3429:0.107143 3590:0.471429 3660:0.147253 3767:0.271429 3829:0.35 4267:1 4271:0.228571 4381:0.103571 4522:0.6 4719:0.364286 4734:1 4851:0.403571 5002:0.160714 5264:0.721429 5279:0.3 5324:0.0910714 5336:0.198214 5576:0.165714 5628:0.214286 5681:0.2 
52.09252208713507 75.26033845716121 85.93266553613807 47.01116359125086 140.7528742120853 60.43590122995824 77:0.438679 137:1 168:0.20283 393:0.867925 452:0.242588 554:0.509434 870:0.169811 1006:0.358491 1050:0.738994 1114:0.235849 1183:0.235849 1205:0.339623 1381:1 1971:0.322642 2010:0.292453 2468:0.216981 2768:1 2912:0.179245 3096:0.543396 3154:0.600629 3636:0.178252 3983:0.320755 4221:0.193396 4814:0.539913 4973:0.54717 5077:0.660377 5098:0.108491 5211:0.163522 5323:0.245283 5336:0.261792 5742:1 
91.27818872096081 168.8009459531915 143.5259305266592 116.9169258680765 179.752911730019 109.5943118505513 119:0.216867 258:0.518072 778:0.350904 779:0.253012 870:0.433735 960:1 1114:0.301205 1183:0.301205 1205:0.433735 1504:0.301205 1835:1 2094:1 2144:0.120482 2358:0.708653 3673:0.138554 3698:0.378514 3780:1 4396:0.370482 4615:0.421687 4657:0.172117 5038:0.36747 5098:0.138554 5172:0.795181 5576:0.279518 
87.67671792145696 168.8009459531915 143.5259305266592 125.4054216304119 179.752911730019 109.5943118505513 20:0.639394 135:0.189899 246:0.351515 351:0.206061 397:0.484848 550:0.549495 779:0.190909 884:0.321212 920:0.175524 1038:1 1281:0.690909 1340:0.336364 1402:0.198701 1409:1 1629:1 1679:0.265909 1853:0.184848 2785:1 2952:1 3009:0.59697 3068:0.324242 3110:0.758442 3184:0.0772727 4191:0.6 4428:0.154545 4574:0.772727 4791:0.263636 5098:0.104545 5256:0.345455 5398:0.654545 5547:0.210227 5551:0.248485 5576:0.210909 5580:0.309091 5681:0.254545 5702:0.668182 
27.8147404451439 78.04498299766061 54.81519181170992 79.67604018528522 54.53057962859287 66.12859040343 26:0.124514 28:0.245136 32:0.0910506 124:0.0326848 245:0.0700389 314:0.0428016 339:0.169261 358:0.166018 370:0.0330739 444:0.1393 452:0.0750417 460:0.161479 461:0.0564202 472:0.0963035 475:0.11284 476:0.0705948 511:0.258755 591:0.0398833 611:0.245136 625:0.111868 670:0.0933852 695:0.245136 742:0.36965 779:0.108949 791:0.0646887 841:0.0350195 864:1 884:0.0687419 899:0.0846304 917:0.161479 925:0.0564202 949:0.206226 957:0.231518 1006:0.07393 1012:0.0894942 1052:0.103113 1081:0.129377 1114:0.0486381 1122:0.0262646 1128:0.0246433 1151:0.153696 1162:0.0758755 1183:0.145914 1205:0.140078 1209:0.0667964 1283:0.256809 1325:0.0568093 1328:0.0953307 1354:0.0428016 1362:0.0538262 1392:0.051751 1513:0.143969 1580:0.258755 1626:0.36965 1636:0.0646887 1713:0.0379377 1718:0.0440986 1766:0.418936 1808:0.109922 1853:0.039559 1857:0.0178988 1865:0.14786 1870:0.0700389 1903:0.433852 1917:0.0933852 1918:0.0992218 1973:1 1994:0.0732815 2060:0.0700389 2088:0.0447471 2098:0.0596628 2144:0.0583658 2148:0.394942 2214:0.250973 2219:0.100195 2275:0.0716602 2371:0.0894942 2384:0.167315 2468:0.0894942 2471:0.0632296 2477:0.15856 2518:0.677043 2549:0.275486 2623:0.036965 2650:0.287938 2813:0.0447471 2836:0.0661479 2849:0.173152 2871:0.0246433 2937:0.0300167 2979:0.0291829 3008:0.461089 3086:0.0311284 3094:0.0339077 3096:0.336187 3239:0.194553 3389:0.761673 3391:0.550584 3394:0.11284 3395:0.090328 3509:0.0365759 3562:0.451362 3563:1 3578:0.0149157 3688:0.0379377 3701:0.14786 3713:0.11284 3734:0.0282101 3833:0.141375 3845:0.0758755 3847:0.140078 3878:0.0557717 3921:0.0817121 3926:0.045025 3930:0.0432879 3942:0.0933852 3981:0.531128 3992:0.07393 4088:0.130072 4111:0.0350195 4133:0.0557717 4161:0.0836576 4184:0.0440986 4193:0.2393 4216:0.0330739 4221:0.159533 4267:0.0680934 4381:0.0282101 4428:0.016537 4446:0.535019 4477:0.0392996 4522:0.0233463 4561:0.036965 4574:0.16537 4584:0.0330739 4614:0.0544747 4657:0.0277932 4676:1 4707:0.100195 4709:0.0846304 4760:1 4778:0.0398833 4846:0.0603113 4873:0.0330739 4961:0.171206 5028:0.933852 5030:0.0719844 5092:0.100389 5102:0.184825 5113:0.554475 5114:0.210117 5125:0.0661479 5185:0.0447471 5194:0.065592 5323:0.0505837 5415:0.0589216 5439:0.0933852 5507:0.429961 5576:0.180545 5632:0.0797665 5681:0.108949 5702:0.142996 5726:0.118677 5746:0.0312428 
0 31.41916054340686 29.72225745640355 73.45508096687642 12.1878851863086 88.78140126939 88:1 591:1 799:0.589939 1114:0.609756 1205:0.878049 1586:0.556911 1691:1 1726:0.853659 1828:0.479675 2010:0.756098 2213:1 2527:0.439024 2594:0.233859 2945:1 3184:0.207317 3509:0.458537 3529:0.658537 4353:0.817073 5094:1 5632:1 
15.22419140456729 37.28619655078021 46.38653912572023 0 35.56181543447151 0 37:0.302326 119:0.209302 194:0.658915 227:0.332041 461:0.224806 476:0.281285 485:0.289922 756:0.616279 779:0.0542636 870:0.139535 999:0.151163 1092:0.356589 1114:0.193798 1130:0.950904 1177:0.0723514 1183:0.193798 1205:0.27907 1364:0.474692 1441:0.102815 1504:0.387597 1718:0.175711 1735:0.511628 1836:1 1970:0.45155 2002:0.364341 2094:0.536176 2335:0.537984 2358:0.455955 2468:0.178295 2485:0.231266 2645:0.0465116 2830:0.109496 2994:0.860465 3128:0.167442 3188:0.20155 3245:0.906977 3400:0.0813953 3698:0.48708 3713:0.224806 4112:0.224806 4634:0.51938 4657:0.221484 4961:0.170543 5038:0.236434 5098:0.0891473 5185:0.534884 5197:0.250646 5326:0.356589 5341:0.395349 5518:0.910853 5576:0.539535 5614:0.135162 
104.1452007997215 168.8009459531915 143.5259305266592 156.4967582911182 179.752911730019 109.5943118505513 108:0.361905 119:0.321429 370:0.121429 475:0.207143 490:0.383193 605:0.163075 675:0.671429 739:0.0952381 870:0.128571 899:0.310714 926:1 1193:0.657143 1304:0.407143 1749:0.75 1853:0.290476 1883:0.128571 2006:0.542857 2306:0.713571 2734:0.6 2959:0.14 3096:0.205714 3331:0.405714 3612:0.645536 3942:0.114286 4401:0.728571 4581:1 4781:0.690476 4881:0.0936508 5472:0.564286 5576:0.331429 5692:0.531429 5744:0.260268 
104.1452007997215 112.2797841038419 143.5259305266592 156.4967582911182 179.752911730019 38.4663892387538 103:0.718935 1114:0.320513 1142:0.0865385 1164:0.134615 1205:0.461538 1373:0.423077 1573:0.551282 1818:1 1826:1 1857:0.117949 1902:1 2097:1 2405:0.317308 2965:0.615385 3140:0.393162 3267:0.457265 3594:0.538462 3878:0.183761 3913:0.239316 4221:0.262821 4349:0.589744 4627:0.5 4657:0.18315 5390:0.489103 5576:0.297436 5609:0.435897 
1.457322863571368 12.00768848961239 28.28253473220615 109.3316492185191 15.83431482484214 61.17018237274963 65:0.838983 137:0.449153 285:0.440678 393:0.584746 452:0.0544794 465:0.326271 481:0.159428 485:0.158475 646:0.158898 659:0.140578 747:0.1875 965:0.224576 1114:0.105932 1127:0.195975 1166:0.21822 1183:0.105932 1205:0.152542 1209:0.14548 1325:0.123729 1441:0.786798 1523:0.0651483 1615:0.191384 1772:0.0932203 1828:1 1831:1 1917:0.20339 1960:0.125706 1971:0.724576 2068:0.059322 2092:0.133475 2144:0.0423729 2188:1 2207:0.133898 2405:0.104873 2453:0.0529163 2646:0.111017 2813:0.389831 2873:0.133898 2937:0.326877 2951:0.334746 2996:0.111582 3216:0.258475 3369:0.121469 3404:0.170904 3525:0.186441 3684:0.167373 3930:0.942797 3967:0.28178 4484:1 4621:0.584746 4852:0.235169 5038:0.646186 5185:0.0974576 5194:1 5305:0.466102 5336:0.117585 5368:0.118644 5410:0.877119 5527:0.385593 5551:0.115819 5604:0.235169 5681:0.118644 
54.91195898660495 58.6981991937456 33.58851801894323 58.34095665173491 87.38359249340138 0 279:0.11202 371:0.104258 452:0.396476 605:0.1341 657:0.0866373 681:0.0960352 821:1 855:0.387665 894:0.387665 931:0.288546 999:0.0859031 1012:0.101322 1014:0.396476 1047:0.0572687 1068:0.659534 1079:1 1122:0.118943 1185:0.145374 1209:0.453744 1341:1 1380:0.251101 1388:0.387665 1424:1 1441:0.408996 1460:0.258443 1549:0.146843 1586:0.100587 1634:0.170338 1661:0.209251 1662:0.768722 1702:0.192364 1711:0.557269 1772:0.0969163 1831:0.305779 1849:0.634361 1857:0.0405286 1869:0.0903084 1899:0.323054 1917:0.105727 1947:0.180617 2060:0.317181 2115:0.118943 2178:0.294053 2267:0.105727 2329:0.220264 2405:0.109031 2649:0.0682819 2704:0.170338 2751:0.110132 2937:0.135935 3096:0.126872 3140:0.0675477 3457:0.15859 3505:0.844556 3690:1 4012:0.13069 4450:0.357709 4484:0.519824 4707:0.226872 4763:0.167401 4846:0.136564 4979:0.405286 5030:0.0814978 5098:0.0506608 5185:0.101322 5191:0.180617 5308:0.220264 5336:0.122247 5386:0.340675 5445:0.242291 5604:0.0814978 5623:0.792952 5671:0.297357 5721:0.38326 
74.49784793619799 19.88618527216649 48.94226841835088 13.22024169830123 98.9428163495148 0 26:0.256 280:1 389:0.136 392:1 641:0.608 794:0.203556 878:1 879:0.176 924:1 1196:0.296 1205:0.288 1324:0.576 1390:0.372 1398:0.149333 1475:0.728 1491:0.148 1537:0.136 1582:0.222222 1849:0.576 1857:0.2208 1863:0.444 1869:0.164 2068:0.112 2121:0.436 2129:0.154667 2387:0.148 2458:1 2594:0.383529 2602:0.608 2871:0.202667 3078:0.161333 3140:0.245333 3179:0.3984 3366:1 3466:0.308 3879:0.568 3934:1 4088:0.178286 4111:0.144 4134:0.568 4431:0.752 4587:0.68 4807:0.148 4865:0.189333 5062:0.345333 5211:0.277333 5243:0.312 5415:0.242286 5643:0.296 5671:0.18 5693:0.372 
104.1452007997215 65.70852715346408 44.17436700447447 0 115.0088028374848 20.45674634696642 17:0.315972 124:0.116667 234:0.263889 244:0.628472 458:0.226852 719:0.23125 882:0.185185 924:0.868056 982:0.180556 1114:0.173611 1155:0.784722 1205:0.25 1325:0.101389 1328:0.170139 1386:1 1390:0.322917 1413:0.0944444 1504:0.520833 1801:0.224537 1918:0.354167 2097:0.393939 2196:0.116898 2306:0.23125 2539:0.333333 2572:0.458333 2594:0.066585 2611:0.566964 2774:0.333333 2876:0.201389 3188:0.180556 3305:0.0388889 3499:0.125 3518:0.114583 3612:0.104601 3763:0.5 3811:0.169118 3863:0.1875 3990:0.226852 4147:0.193866 4161:0.298611 4280:0.576389 4387:0.618056 4473:0.472222 4580:0.454861 4781:0.111883 4816:1 4881:0.0910494 5069:0.565972 5172:0.458333 5197:0.224537 5576:0.161111 5671:0.15625 
38.20380257266272 0 26.83269606794297 0 39.00003751793373 0 88:0.188506 145:0.409195 725:0.614943 756:0.456897 841:0.206897 931:0.752874 1002:0.132567 1114:0.287356 1183:0.287356 1398:0.214559 1705:0.873563 2092:0.362069 2115:0.310345 2129:0.222222 2132:0.0671016 2215:0.206897 2334:1 2688:0.565517 2991:1 3091:1 3369:0.659004 3415:1 3425:0.758621 4068:0.333333 4111:0.206897 4147:0.320881 4499:0.33908 4643:1 4657:0.164204 4881:0.150702 4887:0.275862 5159:1 5191:0.235632 5576:0.266667 5604:0.425287 5689:0.137931 
0.389918848734676 32.98632848548019 83.26910482485336 31.57089344758992 1.521047246723453 0 24:0.386719 50:0.0949219 119:0.123047 134:0.389648 141:0.295313 387:0.805664 437:0.107422 485:0.219141 498:0.216797 499:0.539062 879:0.128906 910:0.257812 1065:0.181641 1114:0.146484 1122:0.237305 1183:0.146484 1253:0.181641 1299:0.191406 1304:0.333984 1398:0.109375 1484:0.199219 1691:0.120117 1701:0.179967 1713:0.114258 1917:0.140625 2081:0.210938 2115:0.158203 2168:0.673828 2207:0.0925781 2334:0.509766 2485:0.524414 2527:0.105469 2611:0.159459 2758:0.10498 2983:0.669003 3045:0.181641 3091:0.254883 3176:0.167969 3444:0.647461 3713:0.339844 3860:0.137695 3922:0.240234 3942:0.09375 3963:0.132812 3964:0.199219 4146:0.908203 4164:1 4413:0.0519531 4441:0.738281 4487:0.143973 4615:0.205078 4655:0.233203 4657:0.0837054 4774:0.267578 4911:0.524414 4956:0.114258 4982:0.28125 5080:0.319336 5115:0.477539 5129:0.328125 5138:0.0878906 5157:0.181641 5185:0.134766 5197:0.189453 5233:0.216797 5263:0.484375 5275:0.621094 5336:0.162598 5376:0.433594 5445:0.322266 5498:0.738281 5510:0.0869141 5532:1 5571:0.216797 5580:0.199219 
104.1452007997215 168.8009459531915 143.5259305266592 156.4967582911182 179.752911730019 109.5943118505513 111:0.287293 193:0.154696 261:0.248619 389:0.0939227 452:0.0710339 652:0.10221 762:0.112339 836:0.447514 873:0.181995 1114:0.138122 1325:0.080663 1376:0.396212 1537:0.0939227 1546:0.149171 1572:0.112339 1624:0.430939 1630:0.489871 1718:0.25046 1787:1 1828:0.108656 1849:0.39779 1857:0.0508287 1917:0.132597 2069:0.0745856 2416:0.0883978 2418:0.154696 2459:0.433702 2594:0.0529737 2608:0.19337 2635:1 2645:0.0331492 2930:0.430939 2940:0.218232 3086:0.0883978 3128:0.119337 3469:0.447514 3509:0.519337 3578:0.0847145 3839:0.127072 3848:0.123915 3959:0.103131 4034:0.900552 4154:0.0497238 4185:0.104972 4411:0.41989 4614:0.154696 4819:0.189687 4956:0.107735 4981:0.353591 5423:0.0966104 5451:0.150552 5466:0.108425 5497:0.154696 5623:0.497238 5727:0.834254 
88.68292494224059 168.8009459531915 143.5259305266592 156.4967582911182 179.752911730019 109.5943118505513 37:0.357798 108:0.464832 135:0.766565 285:0.954128 1114:0.229358 1167:0.254722 1182:0.334862 1205:0.330275 1846:0.0942452 1939:0.267584 2068:0.12844 2092:0.866972 2144:0.183486 2437:0.929664 2471:0.298165 2628:0.211009 2700:0.492355 2938:0.12844 3049:0.178899 3053:0.605505 3239:0.458716 3369:0.525994 3415:0.798165 3498:0.647598 3684:0.724771 3800:0.612844 3878:0.131498 3917:0.220183 3930:0.408257 4369:0.264526 4510:0.281346 5280:0.214067 5470:0.0825688 5576:0.212844 5577:0.330275 5681:0.513761 5725:0.0648318 
0 57.44822649153188 46.18757402792453 71.43724482259697 0 80.07591667091873 135:0.242894 168:1 203:1 242:0.697674 401:0.802326 419:0.627907 634:0.1875 1071:1 1114:0.290698 1527:0.127907 1857:0.106977 2274:0.569767 2412:0.645349 2471:0.377907 2485:0.346899 2959:0.227907 2979:0.174419 3086:0.372093 3154:0.185078 3176:1 3369:1 3429:0.174419 3446:0.193798 3509:0.655814 3642:0.293023 3793:0.443522 3983:0.395349 4161:1 4168:0.596899 4487:1 4490:0.523256 4537:1 4609:0.476744 4931:0.258721 4956:0.226744 5100:0.44186 5336:0.322674 
61.03417489146472 68.46185894072644 81.15777019362052 156.4967582911182 61.42270908257773 92.20205438999163 203:0.269592 274:0.104344 280:0.130617 370:0.319749 452:0.080609 507:0.103448 533:0.205329 631:0.066179 634:0.101097 670:0.15047 740:0.190327 776:1 872:0.0109718 873:0.103264 920:0.242103 924:0.39185 958:0.855799 966:0.0579937 982:0.0815047 1114:0.0783699 1205:0.112853 1370:0.884013 1390:0.145768 1441:0.0415773 1475:0.380355 1491:0.115987 1563:0.0398567 1569:0.225705 1582:0.130617 1624:0.244514 1632:0.045977 1718:0.0710554 1733:0.0219436 1772:0.0689655 1846:0.128812 1857:0.0288401 1869:0.0642633 1897:0.263323 1922:0.291536 2064:0.307994 2078:0.151515 2129:0.0606061 2131:0.128004 2182:0.255486 2219:0.161442 2238:0.0360502 2316:0.120914 2317:0.422414 2329:0.0783699 2405:0.232759 2429:0.37931 2489:0.123041 2498:0.341693 2539:0.0752351 2594:0.510972 2602:0.238245 2646:0.164263 2686:0.122257 2799:0.0423197 3094:0.054635 3096:0.0902821 3140:0.0480669 3216:0.191223 3239:0.15674 3369:0.269592 3396:0.244514 3437:0.131661 3446:0.0522466 3522:1 3578:0.0240334 3721:0.777429 3734:0.0454545 3815:0.0470219 3848:0.210927 3878:0.0898642 3895:0.147335 3917:0.0752351 3926:0.580385 4097:0.115987 4112:0.0909091 4147:0.175026 4341:0.143417 4401:0.106583 4490:0.141066 4628:0.0472309 4629:0.103448 4863:0.523119 4873:0.0532915 4961:0.0689655 4972:0.0415773 5062:0.135319 5171:0.0407524 5203:0.119122 5232:0.0376176 5269:0.652038 5310:1 5324:0.0799373 5350:1 5371:0.147335 5466:0.123041 5506:0.338558 5664:0.0775862 5722:0.0815047 5725:0.0221526 
72.86036698968823 88.26895535408448 84.76319953007339 90.60224016667858 84.73622071709825 74.39109785875489 77:0.106897 119:0.186207 249:0.641379 371:0.163218 461:0.2 479:0.14023 743:0.337931 774:0.356322 870:0.124138 913:0.313793 1122:0.0931034 1253:0.641379 1304:0.393103 1373:0.227586 1398:0.128736 1484:0.468966 1691:0.0706897 1701:0.211823 1810:0.604598 1917:0.165517 2096:0.397241 2115:0.186207 2134:0.11954 2207:0.217931 2353:0.317241 2374:0.765517 2442:0.565517 2483:0.993103 2485:0.205747 2611:0.375369 2766:1 2983:0.131237 3281:0.534483 3343:1 3734:0.1 3930:0.153448 4413:0.489195 4781:1 4864:0.227586 4982:0.165517 5079:0.455172 5111:0.3 5195:0.910345 5263:0.22069 5336:0.382759 5576:0.16 
11.54235549047088 30.37305195756436 0 0 25.3940976180808 34.21319903555996 54:0.23136 132:0.582237 198:0.202303 246:0.763158 280:0.0913743 370:0.223684 382:0.247368 613:1 641:1 717:0.297697 934:0.0927419 956:0.815789 1114:0.164474 1328:0.161184 1362:0.182018 1374:0.241228 1398:0.122807 1491:0.121711 1660:0.467105 1683:1 1705:1 1733:0.0460526 2092:0.414474 2115:0.177632 2129:0.635965 2274:0.322368 2315:0.384211 2338:0.307018 2437:1 2594:0.126161 2628:0.302632 2814:0.631579 2926:0.523026 2965:0.157895 3058:0.236842 3096:0.757895 3179:0.436842 3279:0.172249 3614:1 3636:0.124307 3654:0.736842 3704:0.5 3775:1 3878:0.188596 3879:0.155702 3917:0.157895 3942:0.105263 4111:0.473684 4191:0.144737 4391:0.263158 4401:0.671053 4485:0.121711 4551:1 4732:0.213158 4738:1 4865:0.155702 4880:1 4890:0.25 4901:0.287829 4956:0.128289 5030:0.121711 5100:1 5114:0.710526 5232:0.0789474 5276:0.592105 5412:0.476974 5470:0.0592105 
104.1452007997215 168.8009459531915 143.5259305266592 122.3778888769595 179.752911730019 50.03480126707257 1114:0.206612 1183:0.206612 1205:0.297521 1209:0.85124 1390:0.384298 1917:0.198347 1918:0.210744 2115:0.22314 2196:0.139118 2207:0.130579 2273:0.917355 2471:0.268595 2513:0.570248 2554:0.121606 2743:0.311295 2815:1 2937:0.255018 3096:0.238017 3184:0.0702479 3262:0.239669 3287:1 3420:0.21281 3525:0.363636 3669:0.429752 3673:0.0950413 3903:0.280992 3986:0.338843 4193:0.338843 4347:1 4349:0.380165 4351:0.619835 4707:0.42562 5080:0.450413 5098:0.0950413 5186:0.363636 5323:0.214876 5517:0.518595 5576:0.191736 5664:0.204545 5681:0.46281 
104.1452007997215 168.8009459531915 143.5259305266592 156.4967582911182 179.752911730019 109.5943118505513 77:0.0276786 88:0.0146429 260:0.0589286 275:0.11352 370:0.121429 388:0.0540179 419:0.192857 437:0.16369 533:0.116964 591:0.146429 646:0.200893 722:0.0392857 747:0.158036 789:0.423214 799:0.043192 824:0.0825 873:1 884:0.0630952 913:0.325 949:0.0630952 1006:0.0678571 1011:0.157143 1052:0.0946429 1060:0.0821429 1092:0.0821429 1122:0.0241071 1167:0.148739 1183:0.0446429 1210:0.314286 1328:0.04375 1346:0.052381 1398:0.0666667 1424:0.135119 1449:0.303571 1475:0.0541667 1522:0.242411 1586:0.0407738 1590:0.116071 1632:0.0261905 1634:0.0690476 1691:0.0549107 1791:0.111607 1897:0.3 1901:0.147321 1917:0.214286 1971:0.0610714 2069:0.0241071 2092:0.1125 2189:0.203571 2207:0.0846429 2231:0.0781746 2244:0.0802296 2329:0.0446429 2384:0.0767857 2471:0.116071 2592:0.6 2646:0.0467857 2683:0.0794643 2688:0.0439286 2704:0.0690476 2751:0.0223214 2768:0.307589 2772:0.0169643 2799:0.0241071 2813:0.0410714 2958:0.0558036 2979:0.0267857 3094:0.0311224 3096:0.0514286 3125:0.0589286 3154:0.11369 3216:0.108929 3239:0.0892857 3243:0.140476 3245:0.208929 3253:0.0630952 3257:0.158929 3291:0.120536 3326:0.3 3342:0.0214286 3349:0.0285714 3424:0.2 3509:0.0335714 3529:0.144643 3588:1 3669:0.0464286 3684:0.141071 3713:0.0517857 3734:0.0258929 3811:0.0217437 3820:0.154167 3840:0.0431122 3848:0.040051 3867:0.15 3913:0.0333333 3942:0.0285714 4021:0.219643 4080:0.208333 4225:0.316071 4286:0.160714 4381:0.0517857 4401:0.121429 4454:0.0835714 4510:0.0547619 4539:0.0544643 4579:0.186161 4580:0.116964 4589:0.0389881 4657:0.0255102 4704:0.158929 4778:0.0366071 4807:0.0330357 4820:0.022409 4846:0.332143 4873:0.0607143 4881:0.0234127 4990:0.0741071 5036:0.0678571 5062:0.23125 5077:1 5091:0.432143 5098:0.0205357 5203:0.0678571 5291:0.0589286 5330:0.0946429 5451:0.0486607 5466:0.0350446 5492:0.0776786 5604:0.132143 5614:0.186813 5722:0.348214 5744:0.065067 
0 72.65194551241071 0 0 0 0 119:0.203008 485:0.281203 511:1 654:0.496241 728:0.176692 756:0.298872 791:1 1114:0.18797 1166:0.387218 1205:0.270677 1364:0.920831 1636:1 1713:0.586466 1836:0.969925 1853:0.152882 1971:0.771429 2115:0.203008 2134:0.130326 2207:0.237594 2439:0.81203 2442:0.616541 2734:0.631579 3154:0.478697 3174:0.887218 3262:0.218045 3284:0.496241 3369:0.215539 3942:0.120301 3963:0.340852 4422:0.211362 4734:0.526316 4881:0.0985798 5009:0.616541 5116:0.278195 5172:0.496241 5191:0.308271 5331:0.388471 5576:0.174436 
104.1452007997215 168.8009459531915 107.6403501319322 34.47781443867852 149.9681003401043 28.33602778656311 296:0.666667 401:1 472:0.717391 870:0.26087 1102:1 1114:0.362319 1987:0.252086 2420:0.108696 2513:1 2871:0.183575 2934:0.478261 3529:0.391304 3734:0.210145 3863:0.391304 3958:0.173913 4137:0.714976 4349:1 4563:0.57649 4956:0.282609 5002:0.326087 5185:1 5457:0.626087 
104.1452007997215 168.8009459531915 85.2448446772451 35.53919294160398 143.167973862928 79.38758908202696 295:0.345238 463:0.190476 517:0.388889 841:0.142857 913:0.361111 1012:0.365079 1022:0.119048 1114:0.198413 1151:0.208995 1205:0.285714 1209:0.81746 1249:0.293651 1271:0.134921 1713:0.154762 2081:0.285714 2115:0.214286 2144:0.0793651 2326:0.172619 2455:0.456349 2592:0.888889 2594:0.0760971 2938:0.111111 3184:0.0674603 3256:0.5 3317:0.234127 3636:0.149958 3899:0.0793651 3913:0.148148 4076:0.603175 4090:0.230159 4168:0.407407 4191:0.0873016 4349:0.638889 4356:1 4579:0.275794 4657:0.226757 4831:0.603175 4846:0.246032 4864:0.261905 5030:0.146825 5185:0.18254 5323:0.206349 5379:1 5536:0.218254 5576:0.184127 
104.1452007997215 168.8009459531915 143.5259305266592 156.4967582911182 179.752911730019 109.5943118505513 35:0.187399 36:0.0496769 135:0.0674924 213:0.202908 228:0.140549 247:0.0403877 299:0.0290792 367:0.166397 370:0.0274637 434:0.197092 452:0.0623125 459:0.0904685 476:0.0586199 498:0.0597738 540:0.304523 634:0.573102 670:0.0775444 688:0.164782 741:0.0743134 746:0.267367 799:0.117225 802:0.0510905 824:0.0746365 848:0.042811 866:0.0900646 894:0.0710824 899:0.0702746 913:0.0735057 920:0.0311917 938:0.082391 943:0.225633 999:0.0315024 1012:0.0371567 1048:0.331179 1052:0.085622 1053:0.0682822 1093:0.189015 1122:0.0218094 1154:0.0420032 1159:0.415186 1164:0.0226171 1183:0.0403877 1195:0.1042 1240:0.240711 1249:0.0597738 1279:0.0113086 1306:0.254604 1346:0.0947765 1391:0.189015 1398:0.180937 1436:0.0579275 1441:0.0214267 1475:0.0490038 1522:0.219305 1527:0.0355412 1563:0.0410801 1582:0.0224376 1586:0.0737749 1589:0.108643 1612:0.0199844 1618:0.0549273 1708:0.0706785 1782:0.122132 1790:0.0403877 1846:0.0331914 1857:0.208078 1869:0.0662359 1949:0.0768982 1972:0.509424 1984:0.125454 2003:0.447496 2041:0.0549273 2065:0.0434945 2068:0.113086 2097:0.0916434 2105:0.162843 2107:0.0642532 2115:0.0436187 2144:0.0323102 2185:0.195707 2216:0.527194 2293:0.0506193 2304:0.565428 2343:0.0523987 2388:0.12601 2462:0.152666 2471:0.052504 2493:0.0403877 2517:0.0858528 2527:0.116317 2532:0.0500404 2549:0.038126 2577:0.273829 2581:0.198708 2583:0.0665949 2592:0.180937 2594:0.0464696 2624:0.131462 2633:0.0609855 2719:0.147011 2735:0.228325 2772:0.0306947 2776:0.154766 2794:0.0939932 2813:0.0743134 2824:0.239095 2848:0.135703 2873:0.0510501 2928:0.151858 2937:0.0997 2943:0.088853 2952:0.0355412 2959:0.031664 2965:0.0387722 2975:0.0743134 3086:0.0516963 3132:0.0710824 3140:0.0743134 3154:0.0257135 3199:0.0818525 3216:0.098546 3239:0.161551 3243:0.158858 3245:0.189015 3253:0.13319 3257:0.14378 3274:0.0635433 3294:0.0533118 3327:0.082391 3378:0.122779 3412:0.494346 3424:0.180937 3429:0.0242326 3438:0.098546 3509:0.0607431 3516:0.0537524 3529:0.0872375 3568:0.227787 3600:0.329218 3606:0.0764674 3622:0.0775444 3636:0.122098 3642:0.122132 3660:0.0666087 3669:0.0420032 3721:0.200323 3722:0.0264183 3734:0.0234249 3753:0.125202 3793:0.0410801 3811:0.098356 3820:0.139472 3833:0.117394 3875:0.0850835 3913:0.0301562 3927:0.178514 3930:0.0359451 3933:0.449111 3968:0.145983 4007:0.0491996 4021:0.198708 4046:0.0431217 4138:0.134087 4152:0.0890325 4157:0.0242326 4182:0.037426 4209:0.0864297 4253:0.095315 4262:0.0201939 4267:0.0565428 4280:0.134087 4283:0.0185784 4286:0.290792 4291:0.0726979 4302:0.0610662 4307:0.0472536 4341:0.369548 4349:0.0185784 4353:0.108239 4381:0.117124 4416:0.121163 4439:0.0800831 4447:0.0242326 4450:0.327948 4454:0.0756058 4510:0.0247711 4579:0.0561389 4580:0.105816 4590:0.367124 4616:0.0452342 4627:0.12601 4659:0.0720055 4700:0.203231 4715:0.0818525 4725:0.0172321 4732:0.104685 4805:0.267636 4863:0.0898627 4864:0.159935 4912:0.0487462 4922:1 4934:0.0487345 4988:0.19063 4991:0.0662359 5039:0.0807754 5047:0.098546 5088:0.0394184 5094:0.132472 5098:0.0371567 5138:0.0242326 5180:0.20517 5196:0.232633 5202:0.0977383 5203:0.0613893 5224:0.0791599 5291:0.0533118 5324:0.0205977 5356:0.382876 5372:0.129241 5405:0.231249 5409:0.221863 5415:0.0489268 5434:0.0511578 5494:0.162726 5553:0.0928918 5570:0.119225 5609:0.0274637 5613:0.92084 5722:0.0420032 
51.13701221609345 51.12700624532839 36.22646680367809 33.71426411062809 102.6202386005261 62.44610516057662 246:0.544601 370:0.239437 371:1 507:0.464789 870:0.253521 1362:0.194836 1398:0.262911 1660:1 1713:0.274648 2274:0.690141 2511:1 2640:0.535211 2710:1 2807:0.873239 2871:0.178404 2912:0.267606 3078:0.284038 3733:0.619718 3879:1 3887:0.362676 3909:1 3992:0.535211 4088:0.156942 4134:1 4161:0.605634 4458:1 4589:0.307512 4865:1 4890:0.535211 4978:1 5228:1 5476:0.225352 5563:1 
0 0 4.075984073037042 0 0 0 23:0.967033 119:0.0494505 198:0.506868 258:0.236264 387:0.0906593 419:0.296703 432:0.186813 646:0.412088 719:0.182967 1114:0.137363 1127:0.254121 1205:0.197802 1209:0.188645 1328:0.269231 1701:0.16876 1850:0.391484 1867:0.176609 1917:0.131868 2008:0.225275 2017:1 2065:0.0739645 2140:0.489011 2197:0.725275 2207:0.0868132 2316:0.141287 2412:0.304945 2437:0.278388 2442:0.450549 2471:0.178571 2485:0.163919 2646:0.143956 2671:0.446886 2681:0.214286 2746:0.278846 2768:0.0728022 2774:0.527473 2799:0.0741758 2813:0.126374 2814:0.175824 2952:0.120879 2970:0.565934 2991:0.0956044 3045:0.17033 3352:0.620879 3369:0.630037 3494:0.230769 3621:0.664835 3675:0.159341 3811:0.0669037 3981:1 4133:0.157509 4161:0.236264 4381:0.0796703 4495:0.648352 4621:0.252747 4643:0.478022 4781:0.0885226 4931:0.122253 4982:0.263736 5079:0.362637 5091:0.120879 5148:0.664835 5197:0.177656 5263:0.395604 5323:0.142857 5561:0.420879 5576:0.127473 5692:0.817582 
50.39861218932553 101.049943419912 0 32.60590681906114 81.34505249509013 17.82293434033013 249:0.233083 542:0.458647 550:0.738513 773:0.863158 779:0.0526316 791:0.25 920:0.145171 999:0.146617 1012:0.345865 1081:1 1114:0.18797 1128:0.380952 1181:0.0781955 1209:0.258145 1271:0.12782 1354:0.330827 1392:1 1402:0.164339 1580:1 1853:0.152882 2145:0.233083 2518:0.163534 2549:0.0887218 2793:0.33584 2885:1 2923:0.193609 2952:0.165414 3252:0.0714286 3688:0.879699 3767:0.285714 3942:0.360902 3970:0.206767 4068:0.218045 4221:0.308271 4566:0.290727 4682:0.197995 4704:0.669173 5045:0.0789474 5446:0.917293 5507:0.553885 5530:0.323308 5559:0.343985 5576:0.697744 
13.43859653787751 0 0 0 36.65673223257787 0 249:0.356322 295:1 339:1 695:0.724138 779:0.0804598 1355:1 1572:0.233716 1613:1 1618:0.390805 1771:0.727969 1973:0.984674 2088:0.264368 2144:0.114943 2326:1 2480:0.255172 2518:1 2549:0.542529 2911:1 2965:0.275862 3104:0.446999 3294:0.758621 3389:1 3688:0.448276 4111:0.206897 4184:0.130268 4203:0.448276 4216:0.195402 4446:0.632184 4485:0.212644 4657:0.164204 4709:1 5092:0.197701 5102:0.545977 5256:0.436782 5530:0.494253 5540:1 5576:0.266667 5721:1 5729:0.683908 5746:0.184584 
39.5581195827371 50.11453116317731 61.81357600905767 104.3507024837411 24.10069511146695 43.84115050583394 119:0.221311 434:1 779:0.057377 830:1 870:0.147541 993:0.393443 999:0.159836 1114:0.204918 1124:0.245902 1183:0.204918 1205:0.295082 1390:0.381148 1504:0.204918 1835:0.340164 1960:0.243169 2006:0.622951 2094:0.453552 2144:0.245902 2306:0.272951 2335:0.568852 2338:0.191257 2485:0.489071 2649:0.127049 2876:0.237705 3124:0.218033 3498:0.192864 3619:1 3673:0.0942623 3698:0.257514 3887:0.211066 4076:0.622951 4112:0.237705 4138:0.340164 4657:0.351288 4728:0.29235 4781:0.132058 4863:0.455943 4914:0.188525 5038:1 5098:0.0942623 5296:0.959016 5445:0.45082 5469:0.877049 5576:0.190164 5671:0.368852 
104.1452007997215 168.8009459531915 143.5259305266592 156.4967582911182 133.7931563780769 109.5943118505513 124:0.0438642 183:0.493473 223:0.0992167 245:0.18799 295:0.227154 305:0.365535 350:0.284595 351:0.295909 452:0.0671391 490:0.210106 501:0.246736 521:0.073107 550:0.0197273 554:0.0469974 634:0.0421018 638:0.0570683 641:0.198433 645:0.116188 717:0.118146 779:0.237598 808:0.318538 872:0.0274151 899:0.454308 920:0.151235 966:0.0966057 1023:0.0639687 1047:0.101828 1103:0.0248042 1182:0.0953003 1299:0.0852916 1328:0.319843 1336:0.0469974 1374:0.382942 1398:0.0974761 1627:0.133159 1698:0.171453 1718:0.0591819 1735:0.172324 1846:0.0536435 1869:0.0535248 1917:0.0626632 1957:0.151436 2001:0.543081 2033:0.469974 2088:0.0600522 2129:0.100957 2154:0.0678851 2169:0.0972585 2238:0.0300261 2316:0.0671391 2384:0.112272 2406:0.0861619 2459:0.614883 2477:0.425587 2594:0.27538 2628:0.0600522 2699:0.100087 2801:0.877285 2820:0.078329 2871:0.0992167 2926:0.207572 2965:0.125326 3086:0.0835509 3102:0.724543 3125:0.172324 3134:0.134465 3190:0.198433 3217:0.0678851 3267:0.186249 3437:0.219321 3446:0.0435161 3514:1 3636:0.0493335 3669:0.13577 3713:0.075718 3820:0.67624 3863:0.0704961 3878:0.0748477 3926:0.302126 3942:0.125326 3947:0.130548 3950:0.48564 4034:0.425587 4097:0.0966057 4221:0.214099 4283:0.0300261 4337:0.929504 4381:0.113577 4404:0.72846 4428:0.0221932 4450:0.106005 4485:0.0483029 4495:0.308094 4510:0.0400348 4521:1 4589:0.0570061 4614:0.073107 4718:0.0861619 4778:0.10705 4846:0.16188 4851:0.295039 4861:1 4870:0.0156658 4962:0.232979 5030:0.0966057 5036:0.198433 5134:0.12859 5162:0.421236 5243:0.0509138 5255:0.159269 5332:0.476501 5355:0.0563969 5415:0.079075 5453:0.255875 5561:1 5576:0.0605744 5580:0.0887728 5604:0.0483029 5671:0.0587467 5681:0.146214 
104.1452007997215 168.8009459531915 143.5259305266592 156.4967582911182 152.4453111359233 77.19450818541041 249:0.281818 351:0.206061 437:0.166667 452:0.116883 475:0.263636 872:0.0318182 1185:1 1328:0.668182 1398:0.169697 1441:0.723445 1446:0.5 1658:0.263636 1899:1 1909:0.342424 2232:0.275 2406:0.3 2434:0.345455 2599:0.836364 2687:0.309091 2870:1 2929:0.523636 3053:0.3 3243:0.357576 3267:0.324242 3369:0.260606 3434:1 3860:0.213636 4186:0.411888 4324:0.490909 4584:0.154545 4746:0.169697 4887:0.218182 5191:0.186364 5398:0.327273 5604:0.168182 5646:0.404545 5693:0.845455 
89.68577030378879 168.8009459531915 110.7177267840724 126.1718316087979 116.5984671310161 92.47122404772463 249:0.254098 452:0.105386 737:0.830601 762:1 779:0.057377 783:0.84038 899:0.356557 982:0.213115 1047:0.106557 1117:0.459016 1398:0.153005 1446:0.45082 1449:0.278689 1493:0.356557 1572:1 1816:0.778689 2196:0.137978 2420:0.0614754 2471:0.266393 2485:0.244536 2493:0.204918 2594:0.0785921 2686:0.319672 2689:0.0266393 2728:1 2920:1 2934:0.270492 3094:1 3243:0.161202 3407:0.362998 3636:0.154875 3833:0.595628 4042:1 4191:0.0901639 4203:0.319672 4309:1 4438:0.20765 4510:0.251366 4835:0.409836 5223:1 5254:0.778689 5387:0.0307377 5423:0.286664 5547:0.189549 5576:0.190164 5616:0.192623 
104.1452007997215 168.8009459531915 143.5259305266592 156.4967582911182 179.752911730019 109.5943118505513 730:0.305 739:1 741:0.14375 975:0.25625 1022:0.09375 1052:0.6625 1176:0.128125 1182:0.45625 1392:0.3325 1398:0.116667 1493:0.54375 1522:0.282812 1736:0.2875 1857:0.115 1971:0.21375 2065:0.588942 2107:0.0497159 2388:0.121875 2406:0.20625 2462:0.0984375 2485:0.186458 2799:0.16875 2952:0.1375 3404:0.252083 3684:0.49375 3849:0.15 4193:0.25625 4221:0.25625 4248:0.357813 4381:0.090625 4453:0.2875 4468:0.51875 4594:0.404167 4672:1 4763:0.2375 4807:0.115625 4945:1 5036:0.475 5191:0.128125 5194:0.210714 5291:0.4125 5337:0.608333 5427:0.63125 5614:0.108974 5725:0.0441667 5738:1 
40.46522345667941 78.05665181555437 0 61.29379763584411 53.966937209816 17.28307911882906 32:0.206167 50:0.142731 86:0.0352423 119:0.0396476 141:0.111013 351:0.199706 434:0.537445 458:0.143906 461:0.127753 469:0.145374 485:0.164758 511:0.585903 591:0.0903084 706:0.132159 728:0.103524 757:0.101322 850:0.0396476 910:0.0969163 982:0.114537 993:0.211454 1001:0.60793 1047:0.0572687 1052:0.23348 1065:0.136564 1114:0.110132 1138:0.0313877 1172:0.431718 1205:0.15859 1253:0.136564 1304:0.251101 1325:0.0643172 1393:0.41116 1494:1 1620:0.365639 1658:0.638767 1665:0.46696 1802:0.493392 1836:0.568282 1850:0.313877 1932:1 2017:0.343612 2064:0.144273 2085:0.215859 2126:0.193833 2316:0.113279 2330:0.276065 2337:1 2361:0.636564 2406:0.145374 2439:0.237885 2485:0.131424 2634:0.229075 2688:0.10837 2692:0.174009 2751:0.0550661 2813:0.202643 2924:0.0543319 2930:0.343612 3061:0.317181 3110:0.0918817 3184:0.0748899 3255:0.740088 3506:0.255507 3529:0.118943 3533:0.400881 3640:0.499266 3675:0.638767 3713:0.127753 3887:0.113436 3913:0.082232 3932:1 3986:0.180617 4013:0.370044 4116:1 4146:0.682819 4168:0.452276 4231:0.34141 4362:0.528634 4400:1 4473:0.898678 4485:0.0814978 4584:0.0748899 4595:0.418502 4657:0.0629327 4774:0.100587 4898:0.682819 4931:0.196035 4942:1 4982:0.105727 5051:0.22467 5263:0.246696 5275:0.23348 5561:0.337445 5571:0.162996 5576:0.102203 5619:0.145374 5646:0.196035 
0 18.69736473157796 0 0 92.36931923661763 35.38354705381494 452:0.294438 612:0.129771 634:0.123092 821:0.72201 997:0.580153 1068:1 1164:0.0534351 1185:0.335878 1272:0.618321 1398:0.142494 1460:0.895674 1524:0.70229 1532:1 1557:1 1586:0.1743 1702:1 1831:0.529861 1857:0.070229 1899:0.559796 2178:0.679389 2594:0.219578 2722:0.896947 2779:1 3154:0.607506 3466:0.293893 3498:0.179614 4012:0.905852 4589:1 5094:0.312977 5393:0.847328 5411:1 
52.05267871258643 90.75596295553086 35.21486534476237 55.22558129876213 71.50310867717884 88.65094639821511 3:0.15625 26:0.0666667 97:0.0741667 156:0.235 168:0.0447917 249:0.0645833 339:0.18125 370:0.0354167 371:0.0493056 373:0.1375 416:0.03125 436:1 452:0.0803571 466:0.0429167 504:0.147222 532:0.0701389 537:0.116667 545:0.0395833 550:0.0157407 554:0.15 641:0.158333 695:0.13125 699:0.228125 779:0.2625 791:0.0692708 813:0.0677083 841:0.0375 843:0.0958333 855:0.183333 870:0.0375 899:0.090625 1064:0.114583 1246:0.0520833 1271:0.0354167 1281:0.158333 1328:0.153125 1340:0.154167 1362:0.0288194 1398:0.0388889 1402:0.0455357 1537:0.0354167 1549:0.0694444 1568:0.241667 1636:0.0692708 1713:0.203125 1771:0.527778 1823:0.0458333 1831:0.115686 1940:0.141667 2056:0.120833 2060:0.075 2129:0.161111 2204:0.103906 2259:0.0791667 2396:0.0770833 2436:0.257292 2449:0.05 2455:0.119792 2477:0.169792 2518:0.090625 2532:0.0645312 2549:0.07375 2594:0.199755 2623:0.11875 2631:0.183333 2640:0.0791667 2686:0.08125 2799:0.028125 2871:0.0791667 2876:0.0604167 2912:0.0791667 2991:0.03625 3009:0.410417 3032:0.104583 3053:0.06875 3058:0.075 3078:0.0420139 3125:0.06875 3134:0.214583 3243:0.122917 3245:0.24375 3252:0.0197917 3262:0.0604167 3267:0.0743056 3284:0.1375 3389:0.18125 3429:0.03125 3433:0.120833 3601:0.0847222 3636:0.0787281 3661:1 3733:0.0916667 3849:0.05 3913:0.0388889 3926:0.0482143 3942:0.1 4017:0.14375 4076:0.158333 4140:0.1875 4191:0.0458333 4203:0.1625 4216:0.177083 4221:0.0854167 4266:0.0427083 4300:0.10625 4324:0.1125 4391:0.0833333 4401:0.0708333 4435:0.725 4446:0.0572917 4485:0.0385417 4566:0.0805556 4657:0.0595238 4664:0.0958333 4696:0.505208 4709:0.090625 4722:0.979167 4742:0.00729167 4806:0.246875 4822:0.15 4851:0.353125 4865:0.295833 4873:0.0354167 4921:1 4973:0.241667 4991:0.0854167 5028:1 5114:0.075 5134:0.102604 5211:0.0722222 5228:0.147917 5241:0.442708 5256:0.158333 5276:0.0375 5323:0.0541667 5332:0.380208 5341:0.10625 5398:0.075 5439:0.2 5505:0.2125 5506:0.075 5540:0.18125 5576:0.0966667 5616:0.0489583 5681:0.0583333 5723:0.69375 5725:0.0588889 5746:0.301103 
0 168.8009459531915 143.5259305266592 156.4967582911182 158.0421200433449 109.5943118505513 90:0.679348 258:0.233696 275:0.0863742 379:0.113354 393:0.75 437:0.298913 452:0.0698758 485:0.203261 554:0.0978261 641:0.413043 646:0.407609 703:0.339674 739:0.0724638 873:0.179028 1006:0.206522 1047:0.0706522 1114:0.13587 1376:0.389752 1398:0.101449 1586:0.248188 1791:0.339674 1857:0.05 1971:0.18587 2089:0.728261 2098:1 2238:0.0625 2244:0.488354 2293:0.17029 2343:0.176276 2384:0.467391 2406:0.179348 2414:0.271739 2549:0.0641304 2688:0.401087 2751:0.0679348 2799:0.0733696 2807:0.168478 2813:0.125 2934:0.179348 2952:0.119565 2958:0.509511 3154:0.0865036 3183:0.505435 3274:0.320652 3313:0.141304 3369:0.467391 3481:0.152174 3713:0.157609 4051:0.679348 4083:0.478261 4161:0.467391 4353:0.36413 4383:0.0910326 4810:0.339674 4956:0.105978 5083:0.161232 5336:0.150815 5445:0.298913 
59.51385794302189 0 94.50795062638691 52.21359171052751 137.9947924096688 0 267:0.333333 279:0.801802 452:0.34749 612:0.153153 634:0.290541 807:0.264865 997:0.684685 1068:0.842986 1164:0.0630631 1185:0.396396 1272:0.72973 1398:0.168168 1460:0.528529 1532:0.393393 1586:0.205706 1702:0.393393 1831:0.250132 1843:0.107207 1857:0.165766 1899:0.660661 2178:0.601351 2221:0.14955 2231:0.394394 2317:0.404655 2594:0.259141 2722:0.529279 2779:0.59009 3154:0.43018 3184:0.0765766 3466:0.346847 3855:0.801802 4012:0.534535 4281:0.801802 4450:0.365766 4589:0.59009 4912:0.135919 4972:0.119488 5094:0.369369 5300:0.109746 5393:1 5722:0.234234 
42.19846957095292 118.6569203642967 73.58595766737588 83.04167732424177 77.20622301460847 89.77685206533613 370:0.614458 631:0.254351 982:0.626506 1114:0.301205 1249:0.445783 1328:0.295181 1398:0.2249 1491:0.222892 1849:0.86747 1857:0.221687 1916:0.475904 2129:0.232932 2329:0.301205 2594:0.115521 2704:0.465863 2725:0.39759 2757:0.915663 2818:0.915663 2871:0.15261 3140:0.184739 3179:1 3279:0.473165 3439:1 3467:0.915663 3498:0.283487 3506:0.698795 4050:0.20241 4221:0.246988 4244:0.210977 4401:0.409639 4778:0.493976 4864:0.39759 4865:0.570281 5017:1 5162:0.971888 5451:0.328313 
20.10885448797669 0 0 27.95040611432852 0 28.52903833474021 119:0.109091 141:0.305455 227:0.259596 231:0.069697 351:0.137374 377:0.19697 387:0.2 406:0.70303 469:1 578:1 774:0.313131 813:0.19697 910:0.4 986:0.273939 1114:0.151515 1174:0.539394 1205:0.218182 1225:0.136364 1253:0.657576 1449:0.206061 1691:0.124242 1701:0.186147 2042:0.424242 2125:0.0939394 2207:0.287273 2249:0.536364 2263:0.49697 2611:0.164935 2643:1 2664:0.245455 2722:0.356061 2758:0.760101 3059:0.339394 3174:0.357576 3216:0.369697 3347:0.618182 3658:0.573737 3669:0.157576 3679:0.248485 3964:0.10303 3992:0.230303 4262:0.0757576 4396:0.186364 4564:0.89697 4655:0.241212 4663:0.140909 4688:1 4740:1 4910:0.490909 4982:0.727273 5098:0.069697 5157:0.375758 5197:0.19596 5233:0.224242 5263:0.145455 5275:0.321212 5295:0.4 5319:0.545455 5324:0.0772727 5445:0.333333 5487:0.561039 5576:0.140606 
15.70276738539553 93.54060749603026 0 0 0 0 228:1 351:0.260536 1102:0.793103 1114:0.287356 1183:0.287356 1205:0.413793 1316:1 1362:0.477011 1398:0.214559 1449:0.390805 1713:0.224138 1870:0.827586 2070:0.25977 2144:0.114943 2196:0.193487 2913:0.395402 3096:0.331034 3172:0.62069 3184:0.0977011 3525:0.252874 3615:0.348659 3636:0.217181 3673:0.132184 3684:0.908046 3899:0.45977 4084:0.781609 4088:0.128079 4090:1 4191:0.37931 4446:0.316092 4657:0.328407 4791:1 5098:0.264368 5323:0.298851 5379:0.362069 5439:0.367816 5462:0.436782 5576:0.266667 
104.1452007997215 80.53199059910699 143.5259305266592 65.89451812443963 125.9772534159548 15.17101074097297 24:0.146018 37:0.0862832 50:0.0358407 61:0.123894 88:0.126991 119:0.079646 136:0.090708 141:0.223009 249:0.274336 351:0.0501475 377:0.359513 416:0.0331858 461:0.0641593 469:0.219027 507:0.0730088 648:0.49115 675:0.207965 779:0.0154867 872:0.00774336 884:0.0781711 905:0.115044 910:0.389381 913:0.301991 969:0.0672566 986:1 999:0.0431416 1014:0.0995575 1015:0.0199115 1052:0.117257 1065:0.274336 1066:0.369469 1093:0.25885 1183:0.221239 1204:0.111504 1210:0.389381 1253:0.411504 1328:0.0542035 1417:0.128319 1432:0.201327 1454:0.0862832 1484:0.0752212 1608:0.646018 1691:0.022677 1701:0.135904 1718:0.0501475 1763:0.0995575 1810:0.193953 1848:0.13385 1867:0.213338 1960:0.0656342 1967:0.0641593 1971:0.151327 1999:0.221239 2006:0.0840708 2042:0.154867 2106:0.0641593 2125:0.034292 2132:0.0129156 2140:0.393805 2144:0.0663717 2207:0.0349558 2245:0.0132743 2425:1 2471:0.0719027 2483:0.318584 2485:0.0660029 2611:0.120417 2649:0.034292 2733:0.199115 2746:0.112279 2765:0.214602 2793:0.0988201 2799:0.0896018 2813:0.10177 2925:0.130531 2983:0.421005 3014:0.161504 3045:0.0685841 3046:0.10472 3068:0.0789086 3091:0.0962389 3176:0.126844 3281:0.17146 3317:0.0652655 3347:0.225664 3400:0.0464602 3411:0.146018 3481:0.0619469 3494:0.0929204 3598:0.317109 3615:0.0671091 3846:0.112832 3913:0.0825959 3964:0.112832 3990:0.0722714 3998:0.079646 4068:0.0641593 4111:0.039823 4161:0.0951327 4262:0.0276549 4286:0.39823 4324:0.119469 4441:0.278761 4559:0.108407 4579:0.0768805 4591:0.0752212 4601:0.108407 4615:0.0774336 4643:0.384956 4688:0.730088 4725:0.0943953 4774:0.202065 4873:0.0376106 4982:0.318584 5002:0.149336 5079:0.292035 5080:0.120575 5098:0.050885 5129:0.464602 5157:0.0685841 5185:0.050885 5191:0.090708 5197:0.429204 5236:0.190265 5260:0.336283 5263:0.300885 5275:0.117257 5323:0.0575221 5368:0.123894 5371:0.103982 5387:0.00829646 5405:0.0527813 5438:1 5445:0.121681 5554:0.212389 5561:0.338938 5576:0.102655 5628:0.0663717 
14.45943049593271 33.19109260124186 57.59326499052108 39.57983242304171 0 109.5943118505513 249:0.270742 280:0.181951 370:0.148472 420:1 432:0.593886 452:0.224579 625:0.251092 679:0.266376 728:0.20524 779:0.0611354 794:1 917:0.724891 920:0.168626 982:0.227074 997:0.663755 1128:0.110626 1166:0.449782 1324:0.628821 1346:0.256186 1362:0.120815 1398:0.163028 1491:0.161572 1506:0.432314 1857:0.0803493 1863:0.323144 2088:0.200873 2129:0.16885 2210:0.187773 2594:0.16748 2650:0.646288 2863:0.934498 2871:0.221252 2965:0.209607 3094:0.304429 3096:0.251528 3134:0.449782 3366:0.454876 3466:0.336245 3499:0.157205 3839:0.30131 3879:0.413392 3892:1 3929:0.200873 3934:0.436681 4013:0.733624 4088:0.194635 4097:0.323144 4111:0.471616 4134:0.620087 4161:0.375546 4198:0.194323 4732:0.424454 4847:0.934498 4961:0.19214 5162:0.704512 5196:0.628821 5243:0.170306 5350:0.696507 5376:0.646288 5398:0.31441 5576:0.20262 5643:0.323144 
104.1452007997215 168.8009459531915 143.5259305266592 156.4967582911182 179.752911730019 109.5943118505513 53:0.110075 156:0.420896 168:0.0802239 249:0.115672 275:0.0593017 393:0.0858209 401:0.257463 432:0.126866 449:0.100746 452:0.191898 646:0.279851 739:0.348259 747:0.165112 999:0.0727612 1052:0.197761 1103:0.0354478 1127:0.172575 1182:0.136194 1299:0.121891 1381:0.0494403 1441:0.0494894 1586:0.170398 1624:0.291045 1713:0.0727612 1815:0.494136 1831:0.0517998 1853:0.151741 1917:0.0895522 2064:0.122201 2084:0.184701 2106:0.216418 2131:0.152363 2145:0.115672 2147:0.304104 2406:0.123134 2468:0.0858209 2471:0.121269 2485:0.222637 2577:0.210821 2624:0.0867537 2646:0.0977612 2671:0.151741 2743:0.140547 2813:0.257463 3110:0.233475 3152:0.567164 3154:0.0593905 3174:0.220149 3278:0.390356 3315:0.144279 3316:0.243781 3369:0.106965 3429:0.0559701 3580:0.63806 3622:0.0895522 3669:0.485075 3774:0.0466418 3833:0.271144 3848:0.0836887 4149:0.20709 4165:1 4217:0.199254 4358:0.145522 4418:0.164179 4471:0.63806 4482:0.268657 4538:0.328358 4615:0.130597 4766:0.992537 5062:0.16107 5098:0.0429104 5156:0.197761 5206:0.215739 5232:0.0223881 5302:0.100746 5323:0.0970149 5387:0.0139925 5434:0.118159 5470:0.0335821 5570:0.275373 5604:0.13806 5649:0.200057 5656:0.0671642 
104.1452007997215 168.8009459531915 126.665157324011 156.1378132665984 179.752911730019 43.46572144712128 89:0.890756 108:0.106443 142:0.680672 401:0.579832 449:0.226891 612:1 739:0.112045 841:0.151261 857:0.319328 894:0.369748 957:1 999:0.163866 1052:0.445378 1114:0.210084 1182:0.306723 1205:0.302521 1449:0.285714 2064:0.27521 2293:0.263305 2594:0.0805734 2683:0.186975 3003:0.156863 3294:0.277311 3669:0.218487 3774:0.105042 4217:0.448739 4663:0.195378 4897:1 4973:0.487395 5036:0.319328 5098:0.0966387 5256:0.319328 5466:0.164916 5604:0.932773 
104.1452007997215 168.8009459531915 120.3137380835182 132.6914588492191 179.752911730019 90.72636724367162 3:0.144231 24:0.126923 95:0.0283654 141:0.0484615 249:0.178846 258:0.165385 311:0.119231 351:0.0435897 377:1 469:0.634615 496:0.0105769 517:0.0942308 648:0.106731 706:0.0576923 730:0.0938462 758:0.0901709 884:0.0679487 905:0.05 910:0.761538 964:1 999:0.0375 1049:0.0480769 1065:0.0596154 1084:1 1089:0.0870192 1122:0.0259615 1175:1 1204:0.0484615 1220:0.133333 1253:0.0298077 1263:0.246154 1282:0.0480769 1325:0.0280769 1328:0.0942308 1354:0.0846154 1417:0.0557692 1504:0.0480769 1537:0.0326923 1608:0.280769 1617:0.126923 1630:0.170513 1665:0.203846 1669:0.0269231 1701:0.118132 1736:0.0884615 1751:0.192308 1803:0.108654 1945:0.0426683 1955:0.209615 1960:0.0570513 1967:0.111538 1999:0.0961538 2042:0.134615 2065:0.0517751 2085:0.0942308 2154:0.05 2197:0.761538 2257:0.198077 2349:0.0576923 2432:1 2500:0.128846 2611:0.10467 2643:0.0705128 2649:0.0298077 2681:0.075 2723:0.267308 2724:0.0634615 2743:0.0724359 2758:0.0689103 2774:0.0461538 2813:0.0442308 2820:0.144231 2924:0.0474359 2930:0.15 2938:0.0269231 3053:0.0634615 3094:0.0335165 3112:0.0211538 3184:0.0163462 3239:0.0961538 3255:0.323077 3406:0.0461538 3455:0.139423 3540:0.13141 3578:0.0589744 3640:0.217949 3676:0.171154 3734:0.0557692 3777:0.025 3822:0.225481 3913:0.0717949 3952:0.313462 4001:0.0474696 4013:0.161538 4077:0.144231 4078:0.115385 4126:0.196154 4138:0.0798077 4161:0.165385 4164:0.328205 4187:0.0416667 4204:1 4336:0.0609266 4391:0.0769231 4418:0.0846154 4420:0.0442308 4441:0.242308 4489:0.0403846 4533:0.0557692 4657:0.0549451 4664:0.0884615 4722:0.180769 4740:0.317308 4743:0.0317308 4836:0.107692 4855:0.151923 4930:1 4982:0.276923 4993:0.0725275 5009:0.157692 5067:0.123077 5080:0.104808 5098:0.0221154 5099:0.117308 5129:0.161538 5138:0.0288462 5171:0.025 5263:0.138462 5275:0.101923 5291:0.0634615 5438:0.869231 5445:0.105769 5498:0.484615 5506:0.0692308 5576:0.0446154 5609:0.0326923 5671:0.0432692 5697:0.294231 5703:0.198077 5725:0.0135897 
